{"layers":[{"sq_mt":{},"rooms":{},"long":{},"lat":{}},{"0":{"bias":-0.2864815476098939,"weights":{"sq_mt":0.26233472621652637,"rooms":-1.2673132630730506,"long":-0.8380457052110721,"lat":-0.7604874950626409}},"1":{"bias":-4.569650498040989,"weights":{"sq_mt":8.977916553465324,"rooms":-4.6693305754523955,"long":15.927222592606139,"lat":-9.592745916997494}},"2":{"bias":-0.4593761800804826,"weights":{"sq_mt":-1.635953974595994,"rooms":-2.52983310751456,"long":3.162102195019158,"lat":0.5697184291334702}},"3":{"bias":-1.5245150878055407,"weights":{"sq_mt":0.853180304819279,"rooms":-1.51805485077987,"long":2.3708484014011577,"lat":-1.9374344743617349}},"4":{"bias":-0.5185097462052639,"weights":{"sq_mt":0.5711883216895274,"rooms":-0.5626826990384055,"long":-1.0736000880467649,"lat":-0.7691549800473576}},"5":{"bias":-2.465987292003545,"weights":{"sq_mt":5.059800642608509,"rooms":0.7472877361603951,"long":7.2870809266211864,"lat":-3.0799678254127265}},"6":{"bias":-0.4971826533518162,"weights":{"sq_mt":1.0245066018849494,"rooms":-0.7443301719463267,"long":-1.1448561257725518,"lat":-0.6086905786069862}},"7":{"bias":-0.20553290601756402,"weights":{"sq_mt":-0.8016188498462066,"rooms":-2.98054334590045,"long":1.3349987631049212,"lat":0.6615069711656453}},"8":{"bias":-0.6905275520707335,"weights":{"sq_mt":-1.2493980306932206,"rooms":-2.126946348147803,"long":2.570349061587372,"lat":0.4047292295464408}},"9":{"bias":-0.5052455300558227,"weights":{"sq_mt":-2.560951354363709,"rooms":-3.6239980837150716,"long":4.4588192606631205,"lat":1.8329905163096991}},"10":{"bias":-0.19120052349235342,"weights":{"sq_mt":4.45703269798506,"rooms":0.6773210906052499,"long":-3.721465359483301,"lat":0.6750953433289767}},"11":{"bias":1.275364218267478,"weights":{"sq_mt":-4.242530795948872,"rooms":3.6526006702550484,"long":11.983403936790024,"lat":-16.21298504196989}},"12":{"bias":-0.30277881370284554,"weights":{"sq_mt":-2.160800209487688,"rooms":-1.364267335794509,"long":2.924039105062399,"lat":-0.36264246360573}},"13":{"bias":-0.9516262273614525,"weights":{"sq_mt":0.9209609049984917,"rooms":-2.0510786636551495,"long":1.1680175553220578,"lat":-0.6274840012627035}},"14":{"bias":-6.715450553988536,"weights":{"sq_mt":9.497562248217285,"rooms":2.3584020653900333,"long":4.619600779264187,"lat":-4.184520868131456}},"15":{"bias":-0.0363544142572211,"weights":{"sq_mt":1.959180911516076,"rooms":0.830932783553004,"long":-2.39542218735094,"lat":-0.47452050968801496}},"16":{"bias":-0.29979703316451894,"weights":{"sq_mt":-0.5965646947173252,"rooms":-0.8242785075689737,"long":-0.7191189328289412,"lat":-0.6299507493026361}},"17":{"bias":-2.7523138187993084,"weights":{"sq_mt":1.4864238502853118,"rooms":-1.3369524415356548,"long":3.2176570379079044,"lat":-1.9348880443412468}},"18":{"bias":-0.5368441538983034,"weights":{"sq_mt":-0.4060823242323874,"rooms":-1.5866188543726005,"long":0.3279836461375766,"lat":-0.514522669674827}},"19":{"bias":0.35013764700923816,"weights":{"sq_mt":0.39350370344472446,"rooms":-0.5864738635770085,"long":-2.194913505706053,"lat":-0.470047330790625}},"20":{"bias":0.8549810889414257,"weights":{"sq_mt":1.1134350567652853,"rooms":-0.13258107684126408,"long":-3.0053725838891947,"lat":-0.4155141980924284}},"21":{"bias":0.7217358970517288,"weights":{"sq_mt":-0.16412090770930413,"rooms":-0.4143710075342197,"long":-2.28753261395122,"lat":-0.4745588332489222}},"22":{"bias":-1.2147907532678812,"weights":{"sq_mt":-0.8385366893140931,"rooms":-3.65319285149327,"long":3.680963064626411,"lat":1.5338498335673498}},"23":{"bias":-0.5376854410894573,"weights":{"sq_mt":-0.5291090066555125,"rooms":-1.153248221096974,"long":-0.2811482282484633,"lat":-0.5375040097167838}},"24":{"bias":1.1764339110852442,"weights":{"sq_mt":-3.3719883221569673,"rooms":-3.061165593523127,"long":0.9650069074407718,"lat":-3.5325056120794693}},"25":{"bias":0.7285988277941757,"weights":{"sq_mt":3.300793462312808,"rooms":-1.4944346281078718,"long":-2.837824081715586,"lat":-0.7955210715048702}},"26":{"bias":-2.7503362811954593,"weights":{"sq_mt":1.3236337943746224,"rooms":-2.515052419911535,"long":6.518278203877991,"lat":0.5435404043326815}},"27":{"bias":1.4533052630743166,"weights":{"sq_mt":-3.6313994638960967,"rooms":-3.113153667163538,"long":-1.1908062239159418,"lat":-1.928205613093193}},"28":{"bias":0.30705120043593176,"weights":{"sq_mt":-1.0734352977995698,"rooms":-3.2441083694005273,"long":0.9268369254797048,"lat":0.377020356690921}},"29":{"bias":0.15648655117698382,"weights":{"sq_mt":-1.1745504177656039,"rooms":-2.0899113871675774,"long":0.6993569623228627,"lat":-0.2974616059640894}},"30":{"bias":0.5910659756496666,"weights":{"sq_mt":1.052490252516067,"rooms":0.38256741015069584,"long":-3.144956194829162,"lat":-0.12990291593649986}},"31":{"bias":-0.23556944852509146,"weights":{"sq_mt":-0.9531195387233595,"rooms":-1.7877919931465942,"long":0.7806644463714427,"lat":-0.9245389702058556}},"32":{"bias":-0.8197153397958242,"weights":{"sq_mt":-0.13065523762735562,"rooms":-2.0285375829223686,"long":0.9811715751146245,"lat":0.4769863452733502}},"33":{"bias":-0.5691880511079794,"weights":{"sq_mt":2.835872929770895,"rooms":-0.5959318342432174,"long":-1.605096978626796,"lat":-0.9124559061376154}},"34":{"bias":0.6147769491283527,"weights":{"sq_mt":1.6197840070961231,"rooms":0.7081495671327068,"long":-3.026090084051373,"lat":-0.48062727883656065}},"35":{"bias":-0.2038002935593041,"weights":{"sq_mt":2.640960943642622,"rooms":-1.0054361065257074,"long":-1.7003338626042137,"lat":-0.7781410904387188}},"36":{"bias":-5.2385737053959645,"weights":{"sq_mt":2.322156843219257,"rooms":-1.4385213490404614,"long":6.8324976989594886,"lat":-0.003126518197519078}},"37":{"bias":1.260247587430215,"weights":{"sq_mt":1.0581762600123374,"rooms":-0.39459876962190665,"long":-3.603817602750532,"lat":-0.3601452486061929}},"38":{"bias":0.8160728709888252,"weights":{"sq_mt":-2.853752603556072,"rooms":-2.060358967711333,"long":-2.1713021534793717,"lat":0.007044823790817012}},"39":{"bias":0.7291729523419694,"weights":{"sq_mt":3.3940397001095266,"rooms":0.5146743064516399,"long":-3.8680876293723725,"lat":-0.15601368989718978}}},{"0":{"bias":-0.28249852793619723,"weights":{"0":-0.22990016658411544,"1":-0.4571882431022441,"2":-0.3182302977692129,"3":-0.2700587020427243,"4":-0.21136101140009436,"5":-0.16236102309329825,"6":-0.16721165131828233,"7":-0.057240334347959027,"8":-0.19412489504057784,"9":-0.06760280857917468,"10":-0.4628703384693551,"11":-0.17958630009865847,"12":0.12343565279175026,"13":-0.34297372942107435,"14":-0.330046333074937,"15":-0.3193434257485228,"16":-0.19135477558901406,"17":-0.28721623187316125,"18":-0.22021723584063432,"19":-0.07833784298566694,"20":-0.41089581777412804,"21":-0.12563488213374255,"22":0.0324424148217977,"23":-0.3452142213141526,"24":0.13642599081735976,"25":-0.27189748785011836,"26":-0.07831571672518305,"27":0.14383425199041974,"28":-0.30711364499757116,"29":-0.16954291397930843,"30":-0.25457337741379577,"31":-0.27789140290439873,"32":-0.22215501972945934,"33":-0.5030389260781255,"34":-0.4254648435168431,"35":-0.43936738261769454,"36":-0.021167581623010637,"37":-0.4212936905541137,"38":-0.1421845478210067,"39":-0.5342081329122708}},"1":{"bias":-0.5856388587923571,"weights":{"0":-0.324279445800755,"1":-0.7778777538172882,"2":-0.12477576502384917,"3":0.10735721329721924,"4":-0.26380795400733315,"5":0.1337653402756702,"6":-0.5521217589572246,"7":-0.3622612078449828,"8":0.015471241502595467,"9":0.04517418956247128,"10":-0.8693899663625588,"11":0.22740410577489512,"12":-0.18136167744230466,"13":-0.30230617911297086,"14":0.34289616051393346,"15":-0.5416038719606043,"16":-0.2463911808433139,"17":0.09701241833140273,"18":-0.25487383100110506,"19":-0.35018081431196324,"20":-0.7660647810553961,"21":-0.7275919041580373,"22":0.04076319370476698,"23":-0.12316992555581022,"24":0.17284301374035838,"25":-0.42955745529748857,"26":0.16782776045200407,"27":-0.11607719628069779,"28":-0.12484814914579952,"29":-0.1571873520304899,"30":-0.6611354626006312,"31":-0.20363998253215013,"32":-0.3687406195980238,"33":-0.7019962066111616,"34":-0.6673474480093828,"35":-0.47719611421853336,"36":0.46469444570769985,"37":-0.7453055449498682,"38":-0.5237009136805983,"39":-0.6378376325413092}},"2":{"bias":-0.556118812498735,"weights":{"0":-0.05837060932697265,"1":-0.3419334482865593,"2":-0.37161182709166496,"3":-0.006004386243962856,"4":-0.13256547678769381,"5":-0.10940923544967818,"6":-0.12411305661911844,"7":-0.21810387858024075,"8":-0.21511589191224278,"9":-0.17448439872176216,"10":-0.45583738696608445,"11":0.3852181009838556,"12":-0.31493410492423424,"13":-0.030887411544244483,"14":-0.1180778296973441,"15":-0.24421437197996224,"16":-0.37934061304438105,"17":-0.05443680371437426,"18":-0.15316658293691385,"19":-0.24321955268489426,"20":-0.3816986149250151,"21":-0.3606045257804924,"22":-0.2254798025983011,"23":-0.29216821342302285,"24":-0.1976142969881424,"25":-0.11562584477882888,"26":0.028558784690677744,"27":-0.15252821987129933,"28":-0.40303376482788505,"29":-0.324773530940737,"30":-0.3268714801011688,"31":-0.13246839557243895,"32":-0.2085598180464147,"33":-0.37503479534988793,"34":-0.3677936433480558,"35":-0.17655354068693765,"36":-0.18203666422294387,"37":-0.20774655715404766,"38":-0.3182110319771762,"39":-0.4001264277772026}},"3":{"bias":1.4266303822626887,"weights":{"0":-0.3246285957686466,"1":-2.238623747309528,"2":0.7577765500340681,"3":-0.24330631358960783,"4":-0.31608717100947015,"5":1.5086770767263533,"6":-0.4430724756493533,"7":-0.18053735360259726,"8":0.5273196406748112,"9":1.2481428948627058,"10":-1.0477276857647366,"11":-4.969418304948044,"12":1.2581133357792085,"13":-0.3299937870910619,"14":3.400467244675153,"15":-0.45919951258293507,"16":0.1308386702122839,"17":0.040841528849432734,"18":-0.015209152834454573,"19":-0.3707038069156591,"20":-0.4516395750750544,"21":0.12566909566987425,"22":0.12427259318473012,"23":-0.02093652217301477,"24":1.1383272437994678,"25":-1.7387126755578841,"26":0.9847806844121434,"27":1.0246331559673916,"28":-0.40867128001512626,"29":0.22953033354920352,"30":-0.19604625203113685,"31":0.09557945410755772,"32":-0.014351175557947907,"33":-1.2208179666489076,"34":-0.38536221318779385,"35":-1.0760897135224896,"36":0.7065192190958651,"37":-0.5882999056418121,"38":0.4612651282398723,"39":-1.0946106892527543}},"4":{"bias":-1.1172293221782363,"weights":{"0":-0.5393113800361988,"1":1.0627927015120964,"2":-0.6473728074572456,"3":-0.6243561874434196,"4":-0.16479068799579216,"5":-0.39455002290104496,"6":-0.10934419113782617,"7":-0.5206279217549419,"8":-0.5986967378129717,"9":-0.7963416298441601,"10":0.19767862496511993,"11":-1.3556816178452544,"12":-0.7931193270404268,"13":-0.4421014795370998,"14":-0.06237726238700281,"15":-0.01980986002222543,"16":-0.17450561725514116,"17":-0.4200410988859415,"18":-0.30961904094019566,"19":-0.11585644770528383,"20":-0.34242689559686196,"21":-0.2882362457331589,"22":-0.8071054051039178,"23":-0.19774457078350158,"24":-0.4444708843723062,"25":-0.13302473767452305,"26":-0.959791280573376,"27":-0.3479017840059272,"28":-0.7905237954778903,"29":-0.7098534603840464,"30":-0.33876548123722605,"31":-0.30589026127148816,"32":-0.5883414075452286,"33":-0.07686216404996749,"34":-0.16754328168263805,"35":-0.17390503016564748,"36":-0.5588869951623326,"37":-0.2942518221163266,"38":-0.21699221396048562,"39":-0.004207011448991906}},"5":{"bias":-0.15052760473922505,"weights":{"0":-0.43555705277741347,"1":-1.0119607604435605,"2":0.0750881869534501,"3":-0.22730118179961434,"4":-0.4039929099104297,"5":-0.27931685453955807,"6":-0.28547134058415596,"7":-0.2861202583829654,"8":-0.001150147798346194,"9":-0.09969689254549356,"10":-0.386816849299476,"11":-0.4916161669398101,"12":-0.00490103773425275,"13":-0.026053161349792284,"14":-0.05832055537118848,"15":-0.4330394931870914,"16":-0.04001926976174688,"17":-0.26039978393486124,"18":-0.34032458631922335,"19":-0.20196291953511047,"20":-0.1706232183068304,"21":-0.3462851738321179,"22":0.11914134087582355,"23":-0.11055318018084698,"24":-0.1824455597105731,"25":-0.5097788535747713,"26":-0.10782162281239398,"27":0.02034490881073899,"28":0.017170694150889683,"29":-0.2717408546485991,"30":-0.275496964005807,"31":-0.33790732964909237,"32":-0.016330656577923267,"33":-0.4559789479976366,"34":-0.2883912864756834,"35":-0.548588675237429,"36":0.022312578102004196,"37":-0.14018752396661083,"38":-0.15561318815388944,"39":-0.35456310960584336}},"6":{"bias":-0.28659801455807443,"weights":{"0":-0.026445230319386975,"1":-0.477408896200875,"2":-0.3604487999075452,"3":-0.056713755159387945,"4":-0.3071654170181595,"5":-0.357053832215572,"6":-0.2833817130376583,"7":-0.4040420903112604,"8":-0.007362166684257119,"9":-0.01947271470656148,"10":-0.3165818095800939,"11":-0.28293113811036585,"12":-0.07530957060545874,"13":-0.3613747222459332,"14":-0.2703145660316883,"15":-0.024640293531631684,"16":-0.14810246658697146,"17":0.02585050661345009,"18":-0.3341642995842969,"19":-0.048258083506774116,"20":-0.27863079276059954,"21":-0.31580564566029173,"22":-0.11219484581636652,"23":-0.3656471559122291,"24":-0.07981982426740329,"25":-0.11441900282885634,"26":-0.06628556969596709,"27":-0.10202917732452403,"28":-0.29859515369180106,"29":-0.1024357651536495,"30":-0.0363491940656619,"31":-0.1509918120981155,"32":-0.2848882508775252,"33":-0.3471051012295945,"34":-0.36279714986152656,"35":-0.07359128361526535,"36":-0.21747857826614136,"37":-0.05683096643846268,"38":-0.1619048856219391,"39":-0.3213514871246554}},"7":{"bias":-0.5791798144339604,"weights":{"0":-0.10527517332185582,"1":0.5210938807603865,"2":-0.32946367320868797,"3":-0.4004101309772809,"4":-0.1540449232557653,"5":-0.32949858438815977,"6":-0.03217639858540961,"7":-0.42546672792974266,"8":-0.2545002827112543,"9":-0.25954218366296855,"10":0.00657682247077637,"11":-1.08783976630175,"12":-0.3896746797753779,"13":-0.16991192794359378,"14":-0.2474254277166062,"15":-0.0802144112192939,"16":-0.3027540080852514,"17":-0.4325348139171418,"18":-0.3508020028087208,"19":-0.09898037961680338,"20":0.0436992321124445,"21":-0.16984121887713266,"22":-0.15555338670929955,"23":-0.031100207478879222,"24":0.002814521448208432,"25":-0.21737217534290748,"26":-0.5153011872609591,"27":-0.08702591055701499,"28":-0.11269077521514455,"29":-0.21759838877612445,"30":-0.04557888563921753,"31":-0.23220526502755204,"32":-0.1653412634203694,"33":-0.30580586577189467,"34":-0.089854863520359,"35":-0.245993586642687,"36":-0.14251775261376068,"37":0.028181573412406624,"38":0.06140380987216172,"39":-0.020088524289062857}},"8":{"bias":-0.2138008403281529,"weights":{"0":-0.2287744954297993,"1":-1.8161245143244333,"2":0.01158795371125533,"3":-0.2636867971777707,"4":-0.26955105683579506,"5":-0.00983147379486291,"6":-0.3488882241786324,"7":-0.021513109089788866,"8":0.09557101801544027,"9":0.564282529679262,"10":-0.9806171905222575,"11":-0.34116117675106133,"12":-0.031445263490723824,"13":-0.3885762438890153,"14":-0.02046254894534655,"15":-0.5010308018180109,"16":-0.14852692469443235,"17":-0.20206548447652825,"18":-0.03557083484215712,"19":-0.3563431829003467,"20":-0.3992431852329579,"21":-0.29637130679564216,"22":0.09825998282021846,"23":-0.14826032692182053,"24":0.10810862283582526,"25":-0.800612212025215,"26":0.44049374088775767,"27":0.07908088629441419,"28":-0.11251951967080352,"29":-0.1805191936968795,"30":-0.5683247182365389,"31":-0.34143651234323713,"32":0.06127719334025633,"33":-0.3728866512425721,"34":-0.7651601540622806,"35":-0.6560600491978564,"36":0.06474052881392851,"37":-0.7272754780547273,"38":-0.25896447678444673,"39":-0.8527443394144888}},"9":{"bias":-0.22916649711653597,"weights":{"0":-0.3540821948877549,"1":-1.7706063059263968,"2":-0.03180909255679992,"3":0.040085805568994055,"4":-0.11508346494824033,"5":-0.42384341850366786,"6":-0.2904084788786948,"7":-0.20408889888281245,"8":-0.03612286930522894,"9":0.09301812684696602,"10":-0.549376867924152,"11":0.1572316503387653,"12":0.010206005460104719,"13":-0.2659555001221723,"14":-0.4069812148164503,"15":-0.27499218183003465,"16":-0.05438741320800612,"17":0.07992386472697334,"18":-0.27004341944213456,"19":-0.2746707492377614,"20":-0.5601605190538832,"21":-0.4348537930042436,"22":0.21757503145722293,"23":-0.1016141616051748,"24":0.1708527611930035,"25":-0.5674438206235844,"26":0.013721711770461742,"27":0.22391643860041982,"28":-0.06573029572423482,"29":-0.2616077627493963,"30":-0.5987586758474188,"31":-0.2047669426155729,"32":-0.31527785474203474,"33":-0.3965434037954774,"34":-0.5182486994429666,"35":-0.2526867370257238,"36":0.035794332972761765,"37":-0.4734006019351596,"38":0.09573070756321789,"39":-0.4837796554618316}},"10":{"bias":-0.4273590787985937,"weights":{"0":-0.30445895097100617,"1":-0.9901418991020141,"2":-0.16268862509243506,"3":-0.03163053720357894,"4":-0.1959432375790945,"5":-0.3297589461397147,"6":-0.35199194099899556,"7":-0.04113919425680021,"8":-0.2716402821321077,"9":0.158518512790192,"10":-0.6298994222259111,"11":0.023707677170080373,"12":-0.19047449891831209,"13":-0.22644834727516266,"14":0.009772057509368699,"15":-0.42426962199847346,"16":0.006646741007609046,"17":-0.2968592180209972,"18":-0.11915865876516035,"19":-0.24514549460669244,"20":-0.352577209268896,"21":-0.18206272290591555,"22":0.07780068305011992,"23":-0.21410148880986793,"24":0.17487327185827115,"25":-0.5742932679771245,"26":-0.11867393836215312,"27":-0.09709282093182514,"28":-0.02482457470081527,"29":-0.24053971875109076,"30":-0.3965537449433263,"31":-0.189153054817744,"32":-0.08673766326291596,"33":-0.3482510328592475,"34":-0.23052733967319966,"35":-0.3522263054957463,"36":-0.20408005348280284,"37":-0.20398633509222397,"38":-0.014939478685460571,"39":-0.5257774976521248}},"11":{"bias":-1.0744993797004296,"weights":{"0":-1.0653313868772385,"1":3.0796659504519197,"2":0.42137704857732056,"3":0.25777687823385026,"4":-0.9417963850264499,"5":0.5289895204305047,"6":-1.1560509932212713,"7":-0.0968450314551768,"8":0.41980848869120585,"9":0.7586251391351143,"10":-1.709635119498305,"11":3.382444241896965,"12":0.0365786090969335,"13":-0.2043481143342827,"14":-0.12687691106964516,"15":-1.0709950974118678,"16":-1.0536390394246151,"17":0.8847526177030559,"18":-0.4383798146010011,"19":-1.6441819081461522,"20":-1.7575159952889607,"21":-1.9313542560621542,"22":0.8555185523896385,"23":-0.7101485242594819,"24":-0.007242709396353226,"25":-2.1771589151566273,"26":1.0874812346581928,"27":-0.3586543997232746,"28":-0.34840552200327796,"29":-0.5814498689429464,"30":-1.6491369848678865,"31":-0.5171273475530909,"32":-0.00687705808443759,"33":-0.9308849927629204,"34":-1.523466884171229,"35":-1.4501461112610197,"36":2.259038813184686,"37":-2.0917775328838113,"38":-0.9762150891793949,"39":-1.899661653158701}},"12":{"bias":-0.5058112504995123,"weights":{"0":-0.24523281607150033,"1":-0.37235670385209774,"2":-0.20728018222051464,"3":-0.16583527403636864,"4":-0.3197327880322165,"5":-0.4417103828588239,"6":-0.04232521102991151,"7":-0.1739342292803001,"8":-0.11378455324347113,"9":-0.16052526892115168,"10":-0.4008815324616603,"11":-0.24110275686617758,"12":0.06981366586133982,"13":-0.3483186571236473,"14":-0.4567484468318081,"15":-0.08148659015818158,"16":0.048988843189204316,"17":-0.17136642448233094,"18":-0.10058189969094657,"19":-0.20357346902928922,"20":-0.11471323019549338,"21":-0.21967215064266696,"22":-0.12575222052728344,"23":-0.32950199238561934,"24":0.036937406441803336,"25":-0.3073571277286196,"26":-0.1315611270582043,"27":-0.004350789098444513,"28":-0.15401551289194176,"29":-0.16485666403608024,"30":-0.3836957113355669,"31":-0.09983082291308186,"32":-0.07077847163874647,"33":-0.3771241411536717,"34":-0.3124428683718579,"35":-0.0868256465592348,"36":-0.12156438537887931,"37":-0.0387357124757349,"38":0.17524034569587288,"39":-0.43867716220132963}},"13":{"bias":-0.37289761727998544,"weights":{"0":-0.2846128611854507,"1":-0.9740100787483021,"2":-0.26409343412175534,"3":-0.24918721998329088,"4":-0.3516771616646025,"5":-0.09926698607724933,"6":-0.4192088970347913,"7":0.03323920117660953,"8":0.022258985595747818,"9":0.07286597420308756,"10":-0.5531478379568234,"11":-0.28730097267765126,"12":-0.05664492095475454,"13":-0.06328752539507579,"14":-0.22954298150059466,"15":-0.3785225548384502,"16":-0.0007917929065111125,"17":-0.19381717262840026,"18":-0.05845482732370927,"19":-0.48151996292342114,"20":-0.5422372928674606,"21":-0.36922167737557493,"22":-0.03179198411218699,"23":-0.16611666077823053,"24":-0.08944985678990948,"25":-0.5550811437088364,"26":0.08704629046092904,"27":0.04260648168332388,"28":-0.1885491115667641,"29":-0.12520723980590032,"30":-0.47645283218211787,"31":-0.3374008805652968,"32":-0.07630783488774247,"33":-0.4330691211584879,"34":-0.5377858994608621,"35":-0.23849349791561159,"36":-0.009328577073966077,"37":-0.20550175328994408,"38":0.08092766722605343,"39":-0.6188223601393215}},"14":{"bias":-0.31664439586592386,"weights":{"0":-0.2070506930089449,"1":0.04393469877755054,"2":-0.12570188145815336,"3":-0.2687303072372704,"4":-0.29842095584290246,"5":-0.16364224735094984,"6":-0.2612202242641444,"7":-0.1750424816961745,"8":-0.40361654983693046,"9":-0.25084129418332096,"10":-0.2869021862542976,"11":-0.6385922125911287,"12":0.017127647113815224,"13":-0.08669764602311962,"14":-0.2641422144744658,"15":0.016254392578284205,"16":0.06912137588891924,"17":-0.1893091127295078,"18":-0.36881667247784194,"19":-0.020082254567039153,"20":-0.25729608475450916,"21":-0.19433228415627102,"22":-0.1644143804688722,"23":-0.28178772520524886,"24":0.11853895551272214,"25":-0.0891120460978801,"26":-0.45936676421769174,"27":-0.2256819039798723,"28":-0.16405074410025103,"29":-0.2569570955113904,"30":-0.1014216781552325,"31":-0.1917413304612033,"32":-0.15200454857856513,"33":-0.27200597275956284,"34":-0.06090395449176567,"35":-0.3495187729746968,"36":-0.1933736979658895,"37":-0.169580648359131,"38":0.06620309813831499,"39":-0.271541555737644}},"15":{"bias":-0.9196015760938065,"weights":{"0":-0.05423912919040658,"1":0.8936650352820892,"2":-0.2788991011242413,"3":-0.1323135981559751,"4":-0.12339264955713011,"5":-0.44622931315819114,"6":-0.2082866890976999,"7":-0.3401782803322702,"8":-0.5601862155383568,"9":-0.27751885777173246,"10":-0.17710262339493774,"11":-1.473447579269311,"12":-0.5269091258131409,"13":-0.46098562040729546,"14":-0.5105388587064356,"15":-0.24872301321689924,"16":-0.39503339726699854,"17":-0.4731414431274766,"18":-0.26355119577388925,"19":-0.13735579083460364,"20":-0.2445975700853712,"21":-0.06267902184654653,"22":-0.5829693393756599,"23":-0.2172857846586239,"24":-0.3235308928588252,"25":-0.204135242590176,"26":-0.34076737336648866,"27":-0.05631508801627965,"28":-0.14313460170188952,"29":-0.2890665358301902,"30":-0.030457047058227497,"31":-0.17301928143511577,"32":-0.3587863603145426,"33":0.04914181756056732,"34":-0.04035910236374707,"35":-0.2871997045790195,"36":-0.46199769162788407,"37":-0.011551909480557681,"38":-0.21194334798612022,"39":-0.35658346043262823}},"16":{"bias":-1.2458770414218223,"weights":{"0":-0.8214554469866537,"1":1.229728643616802,"2":0.679615543400346,"3":0.10619607501350524,"4":-0.8406570081670657,"5":-0.7614707155895193,"6":-1.0182633447505445,"7":-0.2272611418958287,"8":0.48727097682636594,"9":0.5466058182937774,"10":-1.833015186845723,"11":0.6750803857333004,"12":0.9479475146643266,"13":-0.3167270720484811,"14":0.4552176079082772,"15":-1.336532546042139,"16":-0.4608932276710624,"17":0.31600206640175454,"18":-0.4375056912612327,"19":-0.9909490113998628,"20":-1.596392928447869,"21":-1.0518270476886464,"22":0.33767780357574717,"23":-0.2594731182438445,"24":1.5217808909927488,"25":-1.6621151650748622,"26":1.6586600364060222,"27":1.2817091596708408,"28":-0.44096140282768276,"29":0.03801625231312909,"30":-1.585400346424346,"31":0.26945848844945863,"32":-0.11243009678544287,"33":-1.0521195963727408,"34":-1.2718743609824799,"35":-1.3263813773502513,"36":1.6169735327712715,"37":-1.805760435484697,"38":0.35331193150738766,"39":-1.9337194455060163}},"17":{"bias":-1.0272553007881515,"weights":{"0":-0.2573121867554251,"1":0.9969614797716421,"2":-0.6641678182540027,"3":-0.3329480736599539,"4":-0.3880309331048704,"5":-0.43503532084080554,"6":-0.1045845826163278,"7":-0.7369038391152533,"8":-0.7152335335507274,"9":-0.6062776216929585,"10":-0.09629868924237535,"11":-1.5623706569675437,"12":-0.4873039067195529,"13":-0.33028496052202744,"14":-0.2629244509081575,"15":-0.03516158343332875,"16":-0.4086327651250802,"17":-0.6233930147316525,"18":-0.49048114904433693,"19":-0.20047279713185642,"20":-0.3511776610103989,"21":-0.2720301913982624,"22":-0.6064408986106523,"23":-0.21616484446098483,"24":-0.46442892416877285,"25":-0.14380660182260488,"26":-0.6882576469551418,"27":-0.3476722883143075,"28":-0.40854816568968644,"29":-0.558876751427252,"30":-0.0803960750859572,"31":-0.3130205052433196,"32":-0.3268272347391778,"33":0.09681869407565247,"34":-0.2160963596892214,"35":-0.08989347201211921,"36":-0.7343594922349823,"37":-0.19073689496937687,"38":-0.3563095809914314,"39":-0.16529018018013467}},"18":{"bias":-1.352729780105723,"weights":{"0":-0.5012087197733858,"1":3.036687399080351,"2":-1.1656220219787394,"3":-0.8079176762406783,"4":-0.36382556166865515,"5":0.008539681619034397,"6":-0.46004440806216157,"7":-1.1099234774876545,"8":-1.2736944626563875,"9":-1.4882795125164678,"10":0.2042230021969242,"11":-1.8642008938935188,"12":-1.0932398690524272,"13":-0.9768339495096137,"14":0.23713978762769303,"15":0.4322392252866262,"16":-0.6143989892200056,"17":-0.8420853097323918,"18":-0.9673362652479067,"19":-0.44292184663586154,"20":-0.22526874982167566,"21":-0.6199271414262226,"22":-1.4087054833827308,"23":-0.7714144591296181,"24":-0.6441515339842204,"25":-0.3194948622042665,"26":-1.2584193741564806,"27":-0.4692091523757239,"28":-1.078513215711305,"29":-1.1805969401443408,"30":0.09230892947467649,"31":-0.9444318450625477,"32":-0.8464932029543224,"33":0.1525839000762122,"34":0.18431917544088702,"35":-0.14676922287831268,"36":-1.0712767609953144,"37":-0.4156818271028061,"38":-0.6559125422909509,"39":-0.1740334539320912}},"19":{"bias":-0.4165074017303664,"weights":{"0":-0.3514705683371796,"1":-0.43842534017153156,"2":-0.06958128240025235,"3":-0.3004770400447208,"4":-0.08836788628179414,"5":-0.3000559820735914,"6":-0.32709170108449614,"7":-0.07241020928692772,"8":-0.25792077596555224,"9":-0.17770648909660314,"10":-0.36238903657635674,"11":-0.25518365579927277,"12":-0.10195703647456676,"13":-0.35946831415867897,"14":-0.15825439470349476,"15":-0.352548461431163,"16":-0.25888316802588957,"17":-0.20793044400829425,"18":-0.1042794202197925,"19":-0.2605617471593848,"20":-0.055338531544657975,"21":-0.0823402901811448,"22":-0.013858929699046132,"23":-0.34287492150023285,"24":-0.12688106816587166,"25":-0.15532291963688177,"26":-0.2000254994965751,"27":0.12125378959671848,"28":-0.08596321276388007,"29":-0.2929215744590379,"30":-0.2966551199030335,"31":-0.2912395173482555,"32":-0.032422798401708315,"33":-0.08671864992410898,"34":-0.013696869438335927,"35":-0.3162639921188955,"36":-0.26390489947844814,"37":-0.06737706738345062,"38":0.10456202503473899,"39":-0.39653659019670034}},"20":{"bias":-0.16328350592463026,"weights":{"0":-0.3406884157744966,"1":0.19560656025577672,"2":-0.3748563982701392,"3":-0.11606343834035357,"4":0.04577017874260451,"5":-0.21726996751577926,"6":-0.14807507577924103,"7":-0.3198389828448242,"8":-0.21026215257119588,"9":-0.29908776024446115,"10":-0.07017473614102018,"11":-0.5486235142059502,"12":-0.24644294807307326,"13":-0.250717266914494,"14":-0.19952110375557847,"15":-0.20606121169162686,"16":-0.04638874622657279,"17":-0.33268823565827316,"18":-0.22312917081587647,"19":-0.1576344141075194,"20":-0.1131215141713759,"21":-0.05994292677444336,"22":-0.2184949426317775,"23":-0.1695537814982252,"24":-0.06128593282520824,"25":-0.1069826765697418,"26":-0.4323754988137613,"27":0.061867241882148157,"28":-0.3548303372879862,"29":-0.036650386791891,"30":-0.05973357776269785,"31":-0.20930238263927387,"32":-0.07010753240282784,"33":-0.29458834866203126,"34":-0.0053594496688824855,"35":-0.1817076996163916,"36":-0.32070802487477557,"37":-0.012424665067134614,"38":-0.19526672920442154,"39":-0.17824243917554317}},"21":{"bias":-0.16967968834905162,"weights":{"0":-0.008344934877090489,"1":-1.8738050584284405,"2":-2.329111552710491,"3":-1.4742280191847432,"4":0.5703491256542295,"5":1.5915523227844572,"6":0.3489652057513592,"7":-1.6403453100151273,"8":-1.6701354077157589,"9":-3.4748955026175214,"10":1.9799555424645683,"11":-2.221120789263139,"12":-1.4144950804155796,"13":-1.4442666651206064,"14":1.3114741548867526,"15":1.4770519896544638,"16":0.25675188258824194,"17":-1.9684801410766775,"18":-0.6721925722718367,"19":1.0171968545220427,"20":1.7484505649457913,"21":1.1014765018922386,"22":-3.5117870676146112,"23":-0.2068563411693041,"24":-1.8298335680193145,"25":1.174439763756553,"26":-4.777190978444333,"27":-1.2077001919174648,"28":-1.409060816622522,"29":-0.7939835448983558,"30":1.8371556869928134,"31":-0.8964528688054361,"32":-1.2253835336158747,"33":0.6923583553804392,"34":1.9587571490897966,"35":0.48875771966002457,"36":-4.861340706844317,"37":1.7778586600964115,"38":-0.4270017904510657,"39":2.180170470880102}},"22":{"bias":-0.17644100734000998,"weights":{"0":-0.4577096708485144,"1":-4.123060433951641,"2":0.48925490361971347,"3":-0.2958334435766989,"4":-0.46951555770712905,"5":0.2847795751025125,"6":-0.2264549031449382,"7":0.22141244182773093,"8":0.5421547645340955,"9":0.7922002333263796,"10":-0.9013279006791478,"11":-0.5153238982644816,"12":0.33263521447157907,"13":-0.20196819642695749,"14":-0.5008162574754684,"15":-0.6576975651713245,"16":-0.014414717143829095,"17":-0.20518122434627245,"18":-0.18007589546859057,"19":-0.35100537319760666,"20":-0.48227131619039615,"21":-0.09178804652821851,"22":0.6129390582081665,"23":-0.11174971749006221,"24":0.3095478503447979,"25":-0.7080156328516448,"26":0.37721684625930796,"27":0.6253262627120151,"28":0.18339648793390667,"29":0.03072112102409977,"30":-0.5317400933273497,"31":0.11202802929482389,"32":0.28543132910844493,"33":-0.6802543651746076,"34":-0.5746775524784221,"35":-0.5821888398235431,"36":0.06144930385448491,"37":-0.5523324058662452,"38":0.20568296747534873,"39":-0.9252601066588076}},"23":{"bias":-0.33158535792008,"weights":{"0":-0.1396936096793992,"1":-0.1161219994946422,"2":-0.20307093498082138,"3":-0.004281405351031154,"4":-0.11369885365431907,"5":-0.4120674131779923,"6":-0.17905001105038756,"7":-0.1607055418234764,"8":-0.03751209583087717,"9":-0.3463403836056181,"10":-0.19828142850323827,"11":-0.20351557706066184,"12":-0.1095688194906287,"13":-0.3752652786628963,"14":-0.2453771848050474,"15":-0.061304573267214314,"16":-0.25208262760389555,"17":-0.15435957270742132,"18":-0.2710051805995464,"19":-0.21386925140235669,"20":-0.04422691152467069,"21":-0.06817753159658024,"22":-0.361922643071113,"23":-0.048318202369414344,"24":0.030161584917733134,"25":-0.020933494246872988,"26":-0.38815023335460686,"27":0.04656314308358819,"28":-0.0689233126018178,"29":-0.31450046588857145,"30":-0.29896904775544236,"31":-0.19920383410463074,"32":-0.3283741081373681,"33":-0.004838037682490303,"34":-0.10513500154036122,"35":-0.05995222056782247,"36":-0.3176450766923137,"37":-0.0671745727418641,"38":-0.0043696668796939,"39":-0.24208998080658992}},"24":{"bias":-0.43817066926019854,"weights":{"0":-0.13848489893536925,"1":-0.11718201754198018,"2":-0.34556565566983416,"3":-0.27601934997315697,"4":0.02158318602461277,"5":-0.28400798752198075,"6":-0.07173515909098153,"7":-0.07032822056650076,"8":-0.14416253024553163,"9":-0.22748863358135432,"10":-0.3085838282253433,"11":-0.25866601204033257,"12":-0.21129293205954075,"13":-0.10050767963438241,"14":-0.3277240090640309,"15":-0.051365788039703895,"16":-0.26616432313906374,"17":-0.0009800532301544695,"18":-0.3124568090923818,"19":-0.173530388486132,"20":-0.3537255258265336,"21":-0.2608366172826094,"22":-0.1742831072188085,"23":-0.2698122086297131,"24":-0.09445820994792063,"25":-0.3930306985543371,"26":-0.33604622386698213,"27":-0.22114204429627704,"28":-0.09780493464810461,"29":0.06696561927557629,"30":-0.2477215241804155,"31":0.04994300574327417,"32":-0.39974897466982684,"33":-0.3418148844641962,"34":-0.1293284722095178,"35":-0.2127099813757169,"36":-0.24631999319422315,"37":-0.14378011733434948,"38":0.028819998054513234,"39":-0.025226242271577982}},"25":{"bias":-1.094743806414839,"weights":{"0":-0.313523984479872,"1":-7.7144026873609,"2":-2.4970364113732724,"3":-0.5353660234003608,"4":0.2962475847094789,"5":-0.48565452715589114,"6":0.5328916900568682,"7":-1.8624635330266042,"8":-1.9085445591622119,"9":-3.342489789922709,"10":3.641716268848488,"11":4.317806097951169,"12":-2.429962179939549,"13":-0.4344806912849799,"14":-2.5940916083342263,"15":1.882666202626664,"16":-0.7481118688023132,"17":-0.1589667826697211,"18":-0.9397551838183763,"19":0.17669427663152457,"20":1.4237542090920483,"21":-0.1387893470278456,"22":-2.5497895959468724,"23":-0.7439124745126008,"24":-1.3659630587897875,"25":2.389743958903236,"26":-2.596003423578456,"27":-1.1084733837557503,"28":-2.071398585520774,"29":-1.6999434970577296,"30":1.5774498170008362,"31":-1.4001349772252474,"32":-0.8609787286473374,"33":2.0232228640292877,"34":1.9329633423488568,"35":1.7122406949990199,"36":-0.785247457976772,"37":1.1953391744636517,"38":-1.3554466459351993,"39":2.647477849273916}},"26":{"bias":-0.5079270167351722,"weights":{"0":-0.3684794292753995,"1":-0.059286071062009595,"2":-0.17559084242393333,"3":-0.14154566671385918,"4":-0.20881191290800932,"5":-0.17951179755344265,"6":-0.3097936429112826,"7":-0.4069458949637548,"8":-0.16830769896192074,"9":-0.2618432817726992,"10":-0.19236710314413083,"11":0.1508315637424949,"12":-0.24675618870965055,"13":-0.12454819318172083,"14":-0.21517079325416463,"15":-0.09430676759109446,"16":-0.21844309770288592,"17":0.07859137971636145,"18":-0.3612842438758799,"19":-0.3188373420940802,"20":-0.22601190307914046,"21":-0.26334258428543184,"22":-0.25887650107349186,"23":-0.29890320223549266,"24":-0.02447451455362624,"25":-0.43561960203135713,"26":-0.09997519349282707,"27":0.05137850103870215,"28":-0.3734528591091386,"29":-0.35597457363762347,"30":-0.08088955573330403,"31":-0.29068263035202957,"32":-0.04107743372247221,"33":-0.3900325897322584,"34":-0.10967498810683064,"35":-0.1009089074800749,"36":-0.11678801005395838,"37":-0.2835940738407172,"38":-0.016186379494279916,"39":-0.2268008778875186}},"27":{"bias":-0.2153664478943616,"weights":{"0":-0.10242211256323011,"1":-0.1584567447627375,"2":-0.3573229125064433,"3":-0.08286432333258625,"4":-0.3602079086513412,"5":-0.12949990118686644,"6":-0.10433970226023709,"7":-0.13863233999224733,"8":-0.15872160276445463,"9":-0.23528700676328757,"10":-0.1815313347658562,"11":-0.24634362854543504,"12":-0.1686342417923982,"13":-0.3867238391349519,"14":-0.2299184270892793,"15":-0.30823375401909214,"16":-0.3043252610282398,"17":0.019777364426049365,"18":-0.20013792317946272,"19":-0.37962111370147344,"20":-0.2525713103993595,"21":-0.35517405299359206,"22":-0.11747111629677312,"23":-0.3255613398504978,"24":-0.014417875917024236,"25":-0.11963579051763636,"26":-0.24214203979036128,"27":0.13840919895708004,"28":-0.06649186503544287,"29":-0.26367856171046383,"30":-0.3065633423400596,"31":0.021785057130407848,"32":-0.3758252619834481,"33":-0.35582297094086585,"34":-0.16118399457178967,"35":-0.3707918441167181,"36":-0.27329896786652375,"37":-0.23648141896390315,"38":0.08236591369368686,"39":-0.4273695808672126}},"28":{"bias":-0.983635256104787,"weights":{"0":-0.37283625276171534,"1":0.5579687619595785,"2":-0.661938074826477,"3":-0.5358266163723976,"4":-0.05516660277843736,"5":-0.2932509268465042,"6":-0.014190317625491364,"7":-0.5315595294402983,"8":-0.7361395200425165,"9":-0.8835278664775882,"10":0.21805589788641883,"11":-0.7999092505564533,"12":-0.77655498498709,"13":-0.4404411545011639,"14":-0.06792377248013406,"15":0.15557203142292453,"16":-0.15511590800432876,"17":-0.40560015478524053,"18":-0.5071084477929754,"19":-0.24933121488647964,"20":-0.04154708473926183,"21":-0.3550805616547054,"22":-0.6851003382563208,"23":-0.4463409082929243,"24":-0.6252656621047662,"25":-0.020551779331895382,"26":-0.8333500689205339,"27":-0.5121359769467211,"28":-0.6505944803954226,"29":-0.582147618956815,"30":-0.16973021747939093,"31":-0.25717739951381197,"32":-0.2790640382391985,"33":0.11760524600499651,"34":-0.21351064414069632,"35":0.015615841406410468,"36":-0.6233627326358785,"37":-0.05544802746365033,"38":-0.2962273702010107,"39":0.09443504019441978}},"29":{"bias":-0.248579522910926,"weights":{"0":-0.30937253695084804,"1":0.2491980698454055,"2":-0.30911900572783785,"3":-0.3349404813818566,"4":-0.21052386984159432,"5":-0.07190208275367875,"6":-0.03157956202240324,"7":-0.26157084569918065,"8":-0.35886305427165216,"9":-0.19076169468598378,"10":-0.16583013187367512,"11":-0.4316482264104772,"12":-0.30733734817005487,"13":-0.06800816512536768,"14":-0.24204955518640184,"15":0.03568730553609625,"16":-0.1486369468124045,"17":-0.06409610790749108,"18":-0.2678443053661875,"19":-0.22500259210384235,"20":-0.08447229737052496,"21":0.08213842543497374,"22":-0.3899894621583829,"23":-0.06336666526238154,"24":0.0009589661365690838,"25":-0.0048413461176898915,"26":-0.48599674604475035,"27":-0.14804738616841928,"28":-0.18268081348286444,"29":-0.016391241039147363,"30":0.06219926933068467,"31":-0.3304405639222837,"32":-0.3017582703688714,"33":-0.25324015651870896,"34":-0.08579869362979868,"35":-0.30118209291426823,"36":-0.3619030672351075,"37":-0.1850831527379922,"38":-0.1826368093818736,"39":-0.2471445780750303}},"30":{"bias":-0.9419612378586553,"weights":{"0":-0.3740140933314223,"1":1.4364285696751973,"2":-0.7877373384326513,"3":-0.5597398694018888,"4":-0.1381369626828591,"5":-0.12799002809054205,"6":-0.33180879347667364,"7":-0.991323615762124,"8":-1.017422919936254,"9":-0.9964493115403003,"10":0.18758168044341894,"11":-1.270768681891344,"12":-0.8834718935528785,"13":-0.5285717303709878,"14":0.09464739436665276,"15":-0.15222638852235715,"16":-0.30368473931303763,"17":-0.501154530062407,"18":-0.5223458506514351,"19":-0.38496150197585716,"20":-0.20786391742097463,"21":-0.2744102848183674,"22":-0.9478717887774252,"23":-0.507238516283977,"24":-0.4196397262962367,"25":-0.36403739281698944,"26":-1.0777803664799355,"27":-0.23395653190588792,"28":-1.0047658905667218,"29":-0.7244209416123957,"30":-0.01942831453493172,"31":-0.5901921859663858,"32":-0.819626651107846,"33":-0.19588318500436966,"34":-0.01734022116691532,"35":-0.033791762864109065,"36":-0.9728872001343012,"37":-0.2758067872677368,"38":-0.21362495284947475,"39":-0.21352428103539753}},"31":{"bias":-0.16454449481302627,"weights":{"0":-0.42722086757683625,"1":-0.4237710289596098,"2":-0.014453411968313151,"3":-0.08740878428928892,"4":-0.3355025241062966,"5":-0.2996498800071094,"6":-0.27866306796583695,"7":-0.24158966964266293,"8":-0.13644191378539006,"9":0.07713357139132926,"10":-0.3929949412385978,"11":-0.37581883350433765,"12":-0.19188546876657128,"13":-0.28783327510339834,"14":-0.04371226265097037,"15":-0.19666631773749269,"16":-0.3488656136863863,"17":-0.017713099246435292,"18":-0.2520762512996116,"19":-0.14961681031529994,"20":-0.3735973466208732,"21":-0.19235792699770218,"22":-0.23447874352746437,"23":-0.2472982323522215,"24":-0.13517407452986674,"25":-0.38752226611301477,"26":-0.004574372288697753,"27":0.12378810181542362,"28":-0.2684701247160784,"29":-0.23334416676177497,"30":-0.2834807326154761,"31":-0.30369636364832536,"32":-0.23661733008886984,"33":-0.4881189612759232,"34":-0.29701191180126046,"35":-0.2029898992687189,"36":0.023208922787535346,"37":-0.10771444879138393,"38":-0.14961140140953727,"39":-0.42779895147594327}},"32":{"bias":-0.40204355838438494,"weights":{"0":-0.1485205164656472,"1":-0.5541682900872339,"2":-0.2897483072014225,"3":-0.13640299617467744,"4":-0.07913031718871265,"5":-0.46809576362285654,"6":-0.23945625000494117,"7":-0.17022951301918007,"8":-0.23412473270626344,"9":0.007464672436611632,"10":-0.4931994760915075,"11":-0.16901689795336225,"12":-0.016435022179459236,"13":-0.10651592447480764,"14":-0.36006927495746044,"15":-0.23139383199430508,"16":-0.20739020549492523,"17":0.02582562588769202,"18":0.051759415032516916,"19":-0.3611421482548618,"20":-0.17879272999371543,"21":-0.30542341770839243,"22":-0.24727823076237576,"23":-0.009722845718600947,"24":-0.02942122082013813,"25":-0.10168361265835599,"26":-0.2685418548712173,"27":0.18642961334826902,"28":-0.2273492435102449,"29":0.023553160489630586,"30":-0.0854365657124633,"31":0.04866760649214385,"32":-0.20075993279160484,"33":-0.43818629821046157,"34":-0.11462324678880911,"35":-0.31980675722715424,"36":-0.12966153019152285,"37":-0.25839753568541396,"38":-0.11964664779742457,"39":-0.4262317096912333}},"33":{"bias":-0.41169538485242746,"weights":{"0":-0.20946722408878354,"1":-0.31668940176663113,"2":-0.061285382342621535,"3":0.006682508673747507,"4":-0.06417247993403473,"5":-0.1818233263726592,"6":-0.166219103118414,"7":-0.196834400577343,"8":-0.0395771668215871,"9":-0.3920591734583572,"10":-0.2574434390345248,"11":-0.018817014804361328,"12":-0.01742671479509971,"13":-0.28531487442553877,"14":0.005504206478159119,"15":-0.36047068143358907,"16":-0.070716904650374,"17":-0.005193010996354318,"18":-0.04158102541956547,"19":-0.2045397367998656,"20":-0.15464731205130403,"21":-0.05059687763139275,"22":-0.12219077146738218,"23":-0.32105594719782604,"24":-0.16560717379995019,"25":-0.25743691509149985,"26":-0.40572301134618177,"27":-0.15417330640510216,"28":-0.1813210963127951,"29":-0.18788160943602333,"30":-0.08832630281453706,"31":-0.007774934322975406,"32":-0.3220499431468655,"33":-0.22903749058141246,"34":-0.24674283141932543,"35":-0.37206666216850887,"36":-0.33719977710296933,"37":-0.3928396676181439,"38":-0.3459310987335285,"39":-0.25474148388744}},"34":{"bias":-0.33834752104068366,"weights":{"0":0.012514462128113532,"1":0.056767830822822794,"2":-0.13039617472320653,"3":-0.051588087875007446,"4":0.010276729081159645,"5":-0.10733931100593656,"6":-0.02433965399618926,"7":-0.265408232432782,"8":-0.37605998338424695,"9":-0.18549375892776862,"10":-0.08878035812510095,"11":-0.6362296102572927,"12":-0.2024740834119024,"13":-0.043987381240379056,"14":-0.2564941218086575,"15":0.0034084660214026485,"16":-0.15912348989430633,"17":-0.30945224256723375,"18":-0.15529464260172082,"19":-0.11505270860928879,"20":0.015124100600965184,"21":-0.24719814162169748,"22":-0.3444149350016759,"23":-0.04553020662180917,"24":-0.2770156935272418,"25":-0.3574971362281939,"26":-0.39754693076518083,"27":0.010825063576690162,"28":-0.31030304142019427,"29":-0.26927619868139147,"30":-0.22221293288911942,"31":-0.24776848075115823,"32":-0.10668108004480542,"33":-0.01578205402817115,"34":-0.1488173618301822,"35":-0.1554858159827788,"36":-0.42048441084046373,"37":-0.12096132477192231,"38":-0.1750410777900913,"39":-0.10731818283753747}},"35":{"bias":-0.47725174342350907,"weights":{"0":-0.32044471438714656,"1":0.11219372464795738,"2":-0.11195453352102419,"3":-0.07838931968531385,"4":-0.17975700535386785,"5":-0.16646058153797674,"6":-0.01992301954613064,"7":-0.5054645080957836,"8":-0.005687731896868791,"9":-0.4094719344838195,"10":-0.45143997272904135,"11":0.26941534912489457,"12":-0.11269629478109483,"13":-0.12463730090471456,"14":-0.22906235113783527,"15":-0.3473983231100757,"16":-0.20060616886664512,"17":-0.04305665771201317,"18":-0.07762750058734431,"19":-0.45119049264853117,"20":-0.2687018812369808,"21":-0.44908369306126195,"22":-0.40224874552310036,"23":-0.2167532515408338,"24":0.006661772905565884,"25":-0.18312383523510295,"26":-0.06464396940877351,"27":-0.18264825985696717,"28":-0.30546684415644976,"29":-0.41426734747140925,"30":-0.3930724338941627,"31":-0.15508110380985174,"32":-0.21477251672478637,"33":-0.1784327332007353,"34":-0.14886193959232072,"35":-0.4101285275171282,"36":0.0010374250513671386,"37":-0.36809703014454476,"38":-0.11968124612737636,"39":-0.24829815077370862}},"36":{"bias":-0.5770093196991177,"weights":{"0":-0.3173568395294114,"1":-0.4823112066875752,"2":-0.33242984096055206,"3":0.054735194776898824,"4":-0.05889545739431291,"5":-0.030263284682677263,"6":-0.19131604310794237,"7":-0.1066250857972303,"8":-0.05854875888090983,"9":0.012609303123951298,"10":-0.497081688602682,"11":-0.004471604720071977,"12":-0.09865716591590223,"13":-0.3154344890618017,"14":0.008992472195932745,"15":-0.37449516748371103,"16":-0.266376852486641,"17":-0.22851680673541389,"18":-0.06528795984234588,"19":-0.2703381672185215,"20":-0.46685705809490413,"21":-0.24191159382552826,"22":-0.07724451559214214,"23":-0.11972103670990633,"24":-0.2545314032840173,"25":-0.47996373828715994,"26":0.05119771153789323,"27":-0.25250811658193906,"28":-0.37625948016363014,"29":-0.13502095877985584,"30":-0.4471234014211133,"31":-0.13563253755239466,"32":-0.061188150191699736,"33":-0.5422796952026784,"34":-0.2356482906721614,"35":-0.45505857114067294,"36":0.037255464048966805,"37":-0.3099088876357105,"38":-0.3567250505605688,"39":-0.5067407509769449}},"37":{"bias":-0.38769716651371505,"weights":{"0":-0.16519890318077302,"1":-0.08380230876063216,"2":-0.28658645556223217,"3":-0.16383220781765995,"4":-0.3712881684205381,"5":-0.32179510797249233,"6":-0.14686215930961624,"7":-0.3713006483142108,"8":-0.07403918994240435,"9":-0.28292482309473804,"10":-0.3213612019679996,"11":0.40867633849045193,"12":-0.008562373888837977,"13":-0.30876098908216343,"14":-0.07537053879005962,"15":-0.13049862000704135,"16":-0.07919104113649199,"17":0.1395602381863418,"18":-0.14006788051489188,"19":-0.2258301494742779,"20":-0.2899881159721054,"21":-0.3775410571477764,"22":-0.19580159355928328,"23":-0.1850291840157906,"24":0.0675475340965149,"25":-0.510633044003086,"26":-0.3481104604176754,"27":0.017406426076414842,"28":-0.1979213734259436,"29":-0.2053019576325256,"30":-0.4049209864552542,"31":-0.033915059278993416,"32":-0.14335217041388673,"33":-0.18720961675758277,"34":-0.34786712699584,"35":-0.2505048216874371,"36":-0.2866765866454424,"37":-0.33754338891724006,"38":-0.24772655614599262,"39":-0.26983824896106745}},"38":{"bias":-0.3921658888410143,"weights":{"0":-0.09497664028886466,"1":-0.46223805378007266,"2":-0.2504019854877583,"3":-0.23747632707556252,"4":-0.014694196676165961,"5":-0.12635611986248274,"6":-0.2871059777680231,"7":-0.13816646680882208,"8":-0.25177316853410536,"9":-0.32741472044269615,"10":-0.23221085692272342,"11":0.138019462708669,"12":-0.052121529177086394,"13":-0.24641942862060562,"14":-0.3079368796436885,"15":-0.2933393682135754,"16":0.025978952099616124,"17":-0.22280698118504585,"18":-0.01080695628373382,"19":-0.1943024634491515,"20":-0.2835125043314426,"21":-0.25569050566222123,"22":-0.19331828138947074,"23":0.005481674900730298,"24":0.12083773884121578,"25":-0.2956546110912043,"26":-0.38125919027992783,"27":0.10194922961333701,"28":-0.18634871958241114,"29":-0.20329331288561453,"30":-0.09737522528274685,"31":0.04810435832258091,"32":-0.340559180174158,"33":-0.056360434220560134,"34":-0.3963145164160519,"35":-0.24709449981277384,"36":-0.3000069096538248,"37":-0.36129592595008037,"38":-0.17620699791565636,"39":-0.2597426439772099}},"39":{"bias":0.05282872037190991,"weights":{"0":0.21252941774571785,"1":1.302838975392761,"2":-0.9265497350504058,"3":1.9226875251889886,"4":0.41181589630698684,"5":-8.307499611267033,"6":0.370666408551679,"7":-0.8987219394100039,"8":-0.6669655287557558,"9":-2.779076785756529,"10":1.9517289768887072,"11":5.164838087912994,"12":-0.2238419736028998,"13":0.5144925993253845,"14":-6.701252106232875,"15":1.4336144433963751,"16":0.01015431387298331,"17":2.564930518991604,"18":0.06845412714971309,"19":0.0832568342680505,"20":0.7257038065665294,"21":0.18262678138051558,"22":-1.5097939516191305,"23":-0.01632711819916639,"24":2.9221601467425034,"25":1.1333288176628948,"26":-0.2876678314534786,"27":3.0403131669357806,"28":-0.9078103538694376,"29":-0.3628709539307539,"30":0.6283801927472734,"31":0.18807105372577382,"32":-0.6197927032303789,"33":1.2062576888290286,"34":1.2867456400515054,"35":0.8273332979286097,"36":2.3402207574334266,"37":0.25367091664259517,"38":2.699386862613356,"39":2.04563639479242}}},{"price":{"bias":1.4193610453705512,"weights":{"0":-0.37226279686760705,"1":-0.6110199380769198,"2":-0.3910686576878597,"3":-1.3497646946895585,"4":0.5996393567621049,"5":-0.5809384404800491,"6":-0.4134755626309353,"7":-0.5199947045115914,"8":-1.0325532187195101,"9":-0.6375702598072722,"10":-0.5344075287280053,"11":-1.238190686884595,"12":-0.31667506639134874,"13":-0.5483090208175055,"14":-0.5343305880362936,"15":-0.08509598360700917,"16":-1.7009943422678946,"17":0.3530239310401366,"18":2.1777781889508505,"19":-0.4446174899595979,"20":-0.663581539976585,"21":3.513854047535433,"22":-2.554402342024721,"23":-0.5377776570323276,"24":-0.44732136543000245,"25":-3.166485294953787,"26":-0.42937334278196887,"27":-0.4416368457090253,"28":0.4119143329243734,"29":-0.675321678187922,"30":0.9482870892910551,"31":-0.4571325206372835,"32":-0.4001630998140573,"33":-0.5352674065675983,"34":-0.6011134596282302,"35":-0.48330600979281324,"36":-0.46585049249263893,"37":-0.48571631772637125,"38":-0.4226194082710925,"39":-3.4361161929943997}}}],"outputLookup":true,"inputLookup":true}