{"layers":[{"sq_mt":{},"rooms":{},"long":{},"lat":{}},{"0":{"bias":-0.6904704438492125,"weights":{"sq_mt":1.6061085908533907,"rooms":-0.43364887363849075,"long":-1.7378314902068341,"lat":-0.261324408815032}},"1":{"bias":-1.5273425268251035,"weights":{"sq_mt":1.8909140143653718,"rooms":1.507335334548287,"long":-0.14252172947214728,"lat":-0.5726142278336103}},"2":{"bias":-11.77890259909451,"weights":{"sq_mt":-7.320898985806918,"rooms":6.340925275390278,"long":15.729146120669052,"lat":-5.126612993425338}},"3":{"bias":12.103097697898074,"weights":{"sq_mt":-9.06021715849894,"rooms":3.3032559854416856,"long":-19.427543902278202,"lat":-4.993731203190338}},"4":{"bias":-1.782804188361338,"weights":{"sq_mt":1.9106650676851629,"rooms":0.6927682048716926,"long":0.18263738936144872,"lat":-0.5480292529453432}},"5":{"bias":-0.22173587490523783,"weights":{"sq_mt":1.634070058912539,"rooms":-0.38800039713262313,"long":-2.2539178597226286,"lat":-0.24615397162917615}},"6":{"bias":-0.7628545904304813,"weights":{"sq_mt":0.9742833372177627,"rooms":-0.7522124780206425,"long":-1.1912615519885308,"lat":-0.38244420813548297}},"7":{"bias":-0.7099493686548963,"weights":{"sq_mt":1.4456010492687668,"rooms":-0.1798147338722071,"long":-1.712957679229929,"lat":-0.3794570007286969}},"8":{"bias":2.745471903487331,"weights":{"sq_mt":-7.3808322423594,"rooms":-5.3371527116410045,"long":5.608498593487081,"lat":-0.8215110958806026}},"9":{"bias":-5.482065261328128,"weights":{"sq_mt":-1.2128739480982784,"rooms":-5.482453049044757,"long":15.022535130079238,"lat":-5.251611029384508}},"10":{"bias":-0.7464226309637753,"weights":{"sq_mt":0.9235099958184393,"rooms":-0.7730594002770693,"long":-1.163545785318695,"lat":-0.3352677688201433}},"11":{"bias":-1.5053278981393807,"weights":{"sq_mt":1.8033317394170607,"rooms":0.03313541135486929,"long":0.34984129425044846,"lat":-0.6320193059099399}},"12":{"bias":1.5773673992510464,"weights":{"sq_mt":-7.2373278242161625,"rooms":-1.2901431428586905,"long":-1.2495070048171104,"lat":-2.3524280212407915}},"13":{"bias":-0.9398210769674143,"weights":{"sq_mt":2.723063558790303,"rooms":0.0723322539397416,"long":-1.9916125280707344,"lat":-0.4543346561472784}},"14":{"bias":-0.9697599822941064,"weights":{"sq_mt":1.1011981673307463,"rooms":-0.5905953007282649,"long":-0.6520918380929828,"lat":-0.543872149028545}},"15":{"bias":-0.7192626338485861,"weights":{"sq_mt":0.8643563048310641,"rooms":-0.4470709397850558,"long":-1.2138580464446869,"lat":-0.5492036797130532}},"16":{"bias":-0.015564276993590778,"weights":{"sq_mt":9.069203135128898,"rooms":3.8543842892156843,"long":-9.824326731596772,"lat":3.8832499776280898}},"17":{"bias":-1.060740952092118,"weights":{"sq_mt":1.0267610574216737,"rooms":0.8085279272283166,"long":-0.8620374775522621,"lat":-0.8147305232293045}},"18":{"bias":-1.9706491774690738,"weights":{"sq_mt":-11.920958883193322,"rooms":5.926442749893991,"long":-10.325703092163385,"lat":13.245487623606888}},"19":{"bias":-0.9615174037883318,"weights":{"sq_mt":2.1365097970548903,"rooms":0.1263376676006694,"long":-1.5462644117839854,"lat":-0.30752314305235756}},"20":{"bias":-1.5054212475929123,"weights":{"sq_mt":3.3793075401272823,"rooms":1.0459345225264018,"long":-1.2315658026408427,"lat":0.3382342011720783}},"21":{"bias":0.44198992522999336,"weights":{"sq_mt":5.82758077733617,"rooms":-3.437030767577452,"long":-2.4624159129932695,"lat":3.3839648315886834}},"22":{"bias":-0.5551273447154321,"weights":{"sq_mt":-0.548419092961504,"rooms":-0.1576445674193965,"long":-0.43170523790521426,"lat":-1.1751920406420657}},"23":{"bias":-1.2151159477589824,"weights":{"sq_mt":-1.068037008876098,"rooms":-0.310692128995436,"long":0.3199041589178018,"lat":-1.530582194454907}},"24":{"bias":-0.3304503402046463,"weights":{"sq_mt":2.3129198319937507,"rooms":-0.45586089973157395,"long":-2.555421440963449,"lat":-0.07458858237192821}},"25":{"bias":4.4730097542644,"weights":{"sq_mt":3.044615988273594,"rooms":5.21489352188965,"long":1.1544965622565,"lat":-14.369397009586487}},"26":{"bias":-0.9967546062123208,"weights":{"sq_mt":2.0048787161813673,"rooms":0.13936902851167776,"long":-1.4467876015528927,"lat":-0.5732424129794088}},"27":{"bias":-0.8923406068137483,"weights":{"sq_mt":3.2495213600833193,"rooms":-0.6147508195252884,"long":-1.9790330740916264,"lat":0.22635073186736554}},"28":{"bias":-0.7405889675330539,"weights":{"sq_mt":-0.5668495752057072,"rooms":0.0021021947271899918,"long":-0.3101782149174035,"lat":-1.6468582389424986}},"29":{"bias":-0.35956973975892637,"weights":{"sq_mt":0.9611143296126502,"rooms":-0.2159962533278613,"long":-1.8164774474784047,"lat":-0.48303198419326665}},"30":{"bias":-1.5186405693958527,"weights":{"sq_mt":0.5931743200932859,"rooms":-0.39498769996127425,"long":1.1691508886217525,"lat":-1.871914136127855}},"31":{"bias":0.6305449485529897,"weights":{"sq_mt":3.5338772912378724,"rooms":-1.00596874339699,"long":-4.64378605488073,"lat":0.4731697668528076}},"32":{"bias":-2.439159287537958,"weights":{"sq_mt":-0.4981460163764591,"rooms":-0.1587513293688441,"long":2.0991518487081735,"lat":-2.751141618486848}},"33":{"bias":-0.7224223533012166,"weights":{"sq_mt":0.6564210340222987,"rooms":0.2170837292270715,"long":-1.3118779210639373,"lat":-0.6652318516209246}},"34":{"bias":-0.20980483031420735,"weights":{"sq_mt":-3.6309983268745345,"rooms":-1.1077444824761828,"long":-0.010225156122374712,"lat":-1.8731792566195897}},"35":{"bias":-0.6552809087984037,"weights":{"sq_mt":1.7208671737856556,"rooms":-0.3720195477882678,"long":-1.7722589072473165,"lat":-0.4254633374277451}},"36":{"bias":-1.544907423710937,"weights":{"sq_mt":0.32848295690489926,"rooms":-1.5221102761912235,"long":7.990155446655595,"lat":-9.493673606468931}},"37":{"bias":-0.7824679198567195,"weights":{"sq_mt":-0.4108855919613026,"rooms":0.16228404629492343,"long":-0.4153920080449601,"lat":-1.1500938855861345}},"38":{"bias":-0.1703567273292237,"weights":{"sq_mt":-2.204348057391848,"rooms":-0.6056783090854545,"long":-0.14128588557791794,"lat":-2.209128563356606}},"39":{"bias":-0.6315809289774548,"weights":{"sq_mt":0.6469599621273511,"rooms":-0.5311254627303483,"long":-1.3754882704498606,"lat":-0.5071775454919449}}},{"0":{"bias":-0.8242342479520072,"weights":{"0":-0.17011665506526807,"1":-0.41722561358891896,"2":-0.6593689885476359,"3":-0.4419256879600554,"4":-0.4150033473534699,"5":-0.19123261964674823,"6":-0.26481171313923313,"7":-0.29914973587050814,"8":-0.45353070808186996,"9":-0.6492461630346514,"10":-0.08722207776436308,"11":-0.4426639032353641,"12":-0.4648838193727474,"13":-0.23277946267999922,"14":-0.2822771558351369,"15":0.0038093358747996395,"16":-0.5759339984288859,"17":-0.10879119731561979,"18":-0.7687346100114578,"19":-0.23063856179120532,"20":-0.4325908088484106,"21":-0.3595551352844239,"22":0.008297612720738813,"23":-0.2742228216689765,"24":-0.16695216245320532,"25":-0.2993351275553355,"26":-0.33844044425319597,"27":-0.5171986249992243,"28":0.0628446291747449,"29":-0.29717877264131737,"30":-0.10457350954443863,"31":-0.34711081855855747,"32":-0.1737815203636741,"33":-0.014005010559922145,"34":-0.12125819090356571,"35":-0.06738835732461314,"36":-0.22970640067098502,"37":-0.0791430017101594,"38":-0.17271387422022383,"39":-0.2262137230757431}},"1":{"bias":-1.582950524503764,"weights":{"0":-0.8534879039357324,"1":0.7987068663775606,"2":-1.521033740465366,"3":-5.629029125803765,"4":0.49998982572100736,"5":-1.1679512034551158,"6":-0.8550865182668685,"7":-0.6722153723981836,"8":-5.2228998426429945,"9":7.89279014636145,"10":-1.0013674986790366,"11":0.0922355114652973,"12":1.7617466112789606,"13":-0.2033510284155001,"14":-0.9375214018047683,"15":-1.0016553342414403,"16":1.6693152172373653,"17":-0.3259164151192324,"18":4.303596275923113,"19":-0.33209090015133264,"20":1.0472221705120202,"21":-1.2374776641669676,"22":-1.1229937320082937,"23":-0.47419589667025847,"24":-0.6965475211178855,"25":-0.10325146412980818,"26":-0.35656141426099,"27":-0.13471492692160905,"28":-0.972229708583602,"29":-1.1840424617530094,"30":-0.38034778215465204,"31":-1.3043729658097483,"32":0.16838312864320873,"33":-0.9221862474605759,"34":0.5491868983953911,"35":-0.8978069006280446,"36":-0.40254140856534365,"37":-0.9836600314850937,"38":-0.42524764901670287,"39":-0.9520801228948927}},"2":{"bias":-0.6380330309142511,"weights":{"0":-0.17491019398720756,"1":-0.3677525058626778,"2":0.08945452991641933,"3":0.08400048122833552,"4":-0.36253062561212795,"5":-0.34148164933852615,"6":-0.1782394301593021,"7":-0.3626389519317515,"8":-0.13164448966196188,"9":-0.09033241169170413,"10":-0.30305554437047083,"11":-0.15153923917299197,"12":-0.1604791927880846,"13":-0.27521973531897975,"14":-0.472432291091501,"15":-0.3339836637084627,"16":-0.60764519649622,"17":-0.4423811399882086,"18":0.697141788224409,"19":-0.28300319794485107,"20":-0.48382984293564835,"21":-0.5395641216671648,"22":-0.16094225984297608,"23":-0.2617733555791563,"24":-0.48410233546619713,"25":-1.4505187925685086,"26":-0.5059863437659171,"27":-0.5541314326883476,"28":-0.13928832101672342,"29":-0.32611698714555487,"30":-0.3181878865936412,"31":-0.45232537862945177,"32":-0.32802728299787814,"33":-0.39211151812793965,"34":0.11069248613949965,"35":-0.4788285455197107,"36":-0.3136297956959181,"37":-0.25885633791465623,"38":-0.22347964765188144,"39":-0.20062447602414646}},"3":{"bias":-0.8351720354253089,"weights":{"0":-0.23218030556909075,"1":-0.3333272478320549,"2":-0.6914390746638313,"3":-0.6580471501811528,"4":-0.17874292199196568,"5":-0.02338551296534884,"6":-0.32215796737513336,"7":-0.25097770093170774,"8":-0.005370912468466665,"9":-0.44713221772650913,"10":0.006935528357397551,"11":-0.24407800604645583,"12":-0.37395846554644924,"13":-0.13179243043380331,"14":-0.3565539287382036,"15":-0.1768827932032189,"16":-0.7314568296853576,"17":-0.08519723189570019,"18":-0.9552918328091521,"19":-0.35116402069986186,"20":-0.5062123462328406,"21":-0.06810089978859057,"22":-0.22108300323442248,"23":-0.1870450598705433,"24":-0.07546069452546775,"25":-0.04891508162242739,"26":-0.4406385881900884,"27":-0.3153472952232485,"28":-0.04625591770731516,"29":-0.16963362973851145,"30":-0.38422786204189024,"31":-0.2019212285182445,"32":-0.1954265588253841,"33":-0.18443946924313034,"34":-0.34394604452961436,"35":-0.08649541512394683,"36":-0.49677878047843177,"37":-0.1467840817611914,"38":-0.1548106310741935,"39":-0.21563149163977294}},"4":{"bias":-0.7808795729238732,"weights":{"0":-0.36622818650262856,"1":-0.36098461589373926,"2":0.20474951801844188,"3":-0.17652747199711305,"4":-0.12781151349491926,"5":-0.4427088501475824,"6":-0.2569734877274719,"7":-0.30503697447377154,"8":-0.1550784350479016,"9":-0.1446815244734538,"10":-0.18130823649036967,"11":-0.2989311265116966,"12":-0.11351233830214066,"13":-0.48022355446452336,"14":-0.14549513190674007,"15":-0.3785266317384745,"16":-0.48154556220513395,"17":-0.40657795864230517,"18":0.1489818318724886,"19":-0.20409534798073295,"20":-0.1029452448221258,"21":-0.4270525146472443,"22":-0.32566810110831956,"23":-0.28216801384553986,"24":-0.5231707582117016,"25":-0.998274823694411,"26":-0.24508298707357246,"27":-0.35387932406530864,"28":-0.29222929172159434,"29":-0.32848743483890913,"30":-0.1504288923189359,"31":-0.45066801933990797,"32":-0.07746802903565285,"33":-0.2865614922411769,"34":-0.14076677206817742,"35":-0.47161806038509974,"36":-0.21278780148655196,"37":-0.4493724918147674,"38":-0.34810317608335983,"39":-0.2341962114292154}},"5":{"bias":-0.6734550520269633,"weights":{"0":-0.5368307344541046,"1":-0.2516264743705614,"2":0.21545830849987266,"3":-0.2589069301056169,"4":-0.1196447419603758,"5":-0.5299347720735598,"6":-0.25866298827082557,"7":-0.632923257060971,"8":-0.2602709187102204,"9":0.31648088283620446,"10":-0.30401623188401145,"11":-0.41983747540817234,"12":0.466580889353293,"13":-0.3420525607354784,"14":-0.2368354230344455,"15":-0.2662478589186494,"16":-0.7809422376653221,"17":-0.5387162950147879,"18":0.2956814373921029,"19":-0.6004080058086861,"20":-0.5615935291738692,"21":-0.876647848540607,"22":-0.28625761765270996,"23":-0.10860900808084994,"24":-0.6688342035694977,"25":-1.117852885735594,"26":-0.46152636287795634,"27":-0.4904292483214832,"28":-0.2465304660802284,"29":-0.41082483452874075,"30":-0.03316182150713651,"31":-0.8097190194030605,"32":0.03378375523653152,"33":-0.4122005235624399,"34":0.20720602022539503,"35":-0.41101756243505444,"36":0.3255923161876962,"37":-0.2912591568937243,"38":-0.15003222784670958,"39":-0.19735417079670559}},"6":{"bias":-0.7497941167790324,"weights":{"0":-0.11406337559407709,"1":-0.42937897673337533,"2":-1.2047186808954842,"3":-0.48562556618689634,"4":-0.050434285763538214,"5":-0.075619851721176,"6":-0.2519407696359254,"7":-0.06427239649384041,"8":-0.18822579276215856,"9":-0.40853377910435124,"10":-0.31939366651452,"11":-0.2905288920823207,"12":-0.5283097843965406,"13":-0.25973137576053934,"14":-0.31271362559864246,"15":-0.13270682312096857,"16":-0.43021623169861956,"17":-0.31877438596750135,"18":-0.7001117533366292,"19":-0.21261868900609804,"20":-0.3207119860609002,"21":-0.0757501540680092,"22":0.042066739925646336,"23":-0.08683900155547387,"24":-0.3510227425047942,"25":-0.19969411890297176,"26":-0.29442556682333415,"27":-0.4246501160210349,"28":-0.18882912635340113,"29":-0.07676498224877323,"30":-0.38549593618705547,"31":-0.15606228533985866,"32":-0.12317387281160497,"33":-0.26254403885182287,"34":-0.06546667771702146,"35":0.04183524858267938,"36":-0.4031858667103504,"37":-0.09773067526481174,"38":-0.122035557498545,"39":-0.1871445885780999}},"7":{"bias":1.7931583081649263,"weights":{"0":-0.5007101925338466,"1":-1.3461794703987446,"2":2.8424381432416084,"3":7.392633388930414,"4":-1.3915530299253496,"5":-0.391075255767982,"6":-0.37852636551074964,"7":-0.5125506054192799,"8":7.5425295877245855,"9":-2.1627198188945944,"10":-0.3716470655418316,"11":-1.3199757254217737,"12":3.0450062919258483,"13":-1.4520037490609883,"14":-0.7110830103244297,"15":-0.3315790619805432,"16":-6.821630838953839,"17":-0.5873253703307043,"18":2.2975163264087346,"19":-0.9338335734971904,"20":-1.8061239503279956,"21":-4.0054872979183065,"22":0.6254766366764882,"23":0.5934243064523503,"24":-0.6757280951134377,"25":-2.522703892357678,"26":-1.0334704301776472,"27":-1.6726147385715773,"28":0.5617801363791511,"29":0.0318621011730938,"30":-0.8941740910329714,"31":-1.5553919175051278,"32":-0.6154512962082173,"33":-0.0727919118907464,"34":1.7963636896732051,"35":-0.6634456391368574,"36":-5.291444906010078,"37":0.4393622343776447,"38":1.5631374226231678,"39":0.03642970513046069}},"8":{"bias":-0.730637836289326,"weights":{"0":-0.16201993681145108,"1":-0.5852859168217575,"2":0.1758464972351956,"3":1.5129936619249837,"4":-0.31985202771303417,"5":-0.4652671142180897,"6":-0.3814158442186854,"7":-0.32303270788869326,"8":-0.018327139113955625,"9":0.5516648330604956,"10":-0.27715309893785595,"11":-0.5642092911337532,"12":0.6811054702196194,"13":-0.6352555282649505,"14":-0.4731640721928195,"15":-0.058881290053667,"16":-0.5692642898338067,"17":-0.525140707245138,"18":0.9587082029360514,"19":-0.38545363492308177,"20":-0.3460101866287371,"21":-0.7297471582297967,"22":-0.23318104682127247,"23":0.051655359083240295,"24":-0.3631036987728456,"25":-1.2675043037056568,"26":-0.4350011162026512,"27":-0.5777506409458909,"28":0.13190684079907208,"29":-0.4398882581713222,"30":-0.2933288327035238,"31":-0.37890940931496386,"32":0.006509573609996908,"33":-0.1596247395737792,"34":0.5687523209931724,"35":-0.5003258168116215,"36":0.6653381948982481,"37":-0.15055474674226926,"38":0.2928219399521396,"39":-0.3597802290015765}},"9":{"bias":-0.9331788220268266,"weights":{"0":0.568039913081469,"1":0.41296329217401095,"2":-7.1275674614155715,"3":-15.163895424712251,"4":0.24483092701510337,"5":0.5974848088881277,"6":0.499175967846185,"7":0.5196343306095978,"8":-2.9452298177846514,"9":-1.1062197234396673,"10":0.43942670948895035,"11":0.08001041833061029,"12":1.200905354392621,"13":0.629592735285633,"14":0.045478171671809065,"15":0.407137715947195,"16":2.368947386412994,"17":0.3136648541114452,"18":-2.1045146314053054,"19":0.5334659440667558,"20":0.6681769928076592,"21":-1.500138879852636,"22":0.19338011482988196,"23":-0.15124504356997484,"24":0.5436318192910656,"25":4.848088769617798,"26":0.45757906708597473,"27":0.3214905022738521,"28":0.06484728753881291,"29":0.625430308213232,"30":-0.3286864578849514,"31":0.13505470710872508,"32":-1.186593748790685,"33":0.22432668040580492,"34":0.46406365877959094,"35":0.4851644841990212,"36":-2.081862078186914,"37":0.08042152472310261,"38":0.17243947280749197,"39":0.6107724828456107}},"10":{"bias":-0.7956123607236811,"weights":{"0":-0.31466835386946823,"1":-0.5471848151223784,"2":-0.02643265672161181,"3":-0.288299439732993,"4":-0.5340564945409182,"5":-0.6476969713707106,"6":-0.25969678107300603,"7":-0.4903423345091711,"8":-0.2907055773139294,"9":0.761709236760056,"10":-0.48957892141099507,"11":-0.20448428898671353,"12":0.7585446366899892,"13":-0.7482151807698257,"14":-0.425562907604581,"15":-0.23148645670574025,"16":-0.7976392515596078,"17":-0.5282890924514444,"18":0.29478680264086815,"19":-0.3423927491875834,"20":-0.48522642730676396,"21":-0.8023438459180325,"22":-0.20035109686873237,"23":0.16452407585108014,"24":-0.6641310730177474,"25":-0.7645365943531239,"26":-0.6868548404159885,"27":-0.7220246749604429,"28":-0.31868685974831906,"29":-0.5432370805724702,"30":-0.04911387064582374,"31":-1.014085378747735,"32":0.1544030012000959,"33":-0.5081661881604324,"34":0.42195002265355963,"35":-0.3507702151051353,"36":0.6301936931410489,"37":-0.12131828606943888,"38":0.10644782400928111,"39":-0.5268893732944059}},"11":{"bias":-0.5677343281613768,"weights":{"0":0.046999333136695735,"1":-0.3401773291428276,"2":-1.2145948761701084,"3":-1.0447706248930697,"4":-0.317650917867448,"5":0.0020402494588437495,"6":-0.06493210130817721,"7":-0.0009260529546796318,"8":0.13629820096951614,"9":-0.28614458288363714,"10":-0.11854037807410116,"11":-0.46256773516225935,"12":-0.5211732116928182,"13":-0.3118861965261013,"14":-0.2191041440588024,"15":-0.10399000196205405,"16":-0.1334197729595286,"17":-0.47856691463797907,"18":-1.5187262426803523,"19":-0.25638006032530486,"20":-0.11176799605138259,"21":-0.033485845865712044,"22":-0.04329150800560174,"23":-0.1415297020903443,"24":0.04652893489066545,"25":0.4761192334019057,"26":-0.30257128221387686,"27":-0.3786358207239079,"28":-0.20978939732747812,"29":0.0008678554249851097,"30":-0.42520995788777166,"31":0.002742121649798924,"32":-0.3716165106811254,"33":-0.10719644668993641,"34":-0.202266610027617,"35":-0.017472587183317623,"36":-0.9517575799637495,"37":-0.15943432387209444,"38":-0.25047768498203027,"39":-0.21610926445976592}},"12":{"bias":-1.8899656149604114,"weights":{"0":0.03495311125324128,"1":-0.8161152498907547,"2":1.38598568186511,"3":0.8736044732572422,"4":-0.22760794453708302,"5":0.06099512236448227,"6":0.05484577247845725,"7":-0.17107232534384054,"8":-3.3167026970352653,"9":-0.23419765128436104,"10":0.103453525407914,"11":-0.39982328087075797,"12":2.273663211778872,"13":-0.08384892562975256,"14":-0.28337350127292726,"15":-0.21441698390222855,"16":2.1383871432301174,"17":-0.40309628617847604,"18":3.1661983339422903,"19":-0.011946977279177129,"20":0.4295782213583893,"21":1.5237736434533478,"22":-0.47988216574295217,"23":-0.3716849686739515,"24":0.3975858324882512,"25":-3.050096548928128,"26":-0.11689529124921405,"27":0.5695493877073667,"28":-0.310554953851366,"29":-0.15656023419496093,"30":-0.845312162553495,"31":0.9969245972804864,"32":-0.8535995962776456,"33":-0.4114506466698786,"34":0.6887607981124351,"35":-0.09721549304705435,"36":-1.0544101859353567,"37":-0.6040037069817377,"38":0.06087569859140442,"39":0.03133167557452313}},"13":{"bias":-0.783275432042025,"weights":{"0":-0.14610871086626578,"1":-0.4562992811354691,"2":-0.4004328300270222,"3":-0.3405897873516455,"4":-0.499818119359675,"5":-0.43437092633826224,"6":-0.09457201961735459,"7":-0.14700172085606614,"8":-0.03428037661604731,"9":-0.26553769920172865,"10":-0.20624615507044217,"11":-0.283626693045688,"12":-0.39195599191558317,"13":-0.18942967760643661,"14":-0.43009887792507373,"15":-0.17550790472739153,"16":-0.4381973981998749,"17":-0.22270712949900703,"18":-0.47413168555231955,"19":-0.36280247840382784,"20":-0.1853664466009617,"21":-0.16969516178362684,"22":-0.19096698130823156,"23":-0.2702677852634879,"24":-0.304299064951335,"25":-0.42153629634383044,"26":-0.15342082436142862,"27":-0.19817670810439322,"28":-0.18509637715792843,"29":-0.3945982902812323,"30":-0.287771104416441,"31":-0.25073767077039194,"32":-0.15139322500206365,"33":-0.21512660787721458,"34":-0.47573439047184346,"35":-0.3632517992337869,"36":-0.46285322294311293,"37":-0.12014528167416147,"38":-0.19527447347394294,"39":-0.24003788000619117}},"14":{"bias":-0.4244796977248449,"weights":{"0":-0.09560666671779798,"1":-0.38745742025634927,"2":-1.9022899660730512,"3":-0.7407405737306311,"4":-0.39504392948281497,"5":0.013461555208612449,"6":-0.13166218674130745,"7":0.05993212998133607,"8":-0.4464492521801133,"9":-0.4489488221736286,"10":-0.26610587190761975,"11":-0.15847194203913756,"12":-0.24778216876736472,"13":-0.30885888255154414,"14":-0.08576830917748046,"15":-0.030704741450078794,"16":0.040234712595201595,"17":-0.39582199923207545,"18":-0.5073850562798753,"19":-0.17496803345055809,"20":-0.4191677839814829,"21":-0.19609197027640532,"22":-0.012840429486620755,"23":0.040168506244126614,"24":0.01042333677669327,"25":-0.02686767665538181,"26":-0.2891741084193656,"27":-0.1239642079634318,"28":0.04789450775541855,"29":-0.194695023308903,"30":-0.15089869373770975,"31":-0.2531904369064308,"32":-0.5129275740228748,"33":0.018323403119535394,"34":-0.29712791882567063,"35":-0.26606460481569855,"36":-0.817662913177977,"37":-0.1262287013052817,"38":-0.10962419310484739,"39":-0.030225109161676394}},"15":{"bias":-0.6831563053427174,"weights":{"0":-0.2732502012417713,"1":-0.27728838089966484,"2":-0.33769374151685083,"3":-0.6357130128276477,"4":-0.33638580632929377,"5":-0.10914681103365907,"6":-0.07041020873195575,"7":-0.1317098381806468,"8":0.22289298151589348,"9":-0.18039791779656814,"10":-0.23250520807475827,"11":-0.3756712554020857,"12":-0.5936999066131851,"13":-0.07548155085560812,"14":-0.06882107812959751,"15":-0.12985196834023907,"16":-0.7080844114562238,"17":-0.08860420096118586,"18":-1.4816728717731602,"19":-0.4158117165553977,"20":-0.32996950651521045,"21":0.02614105496743138,"22":-0.05671010894347188,"23":-0.30878086993137555,"24":-0.3904278548308705,"25":0.2750064906362574,"26":-0.40769855663030724,"27":-0.2586313013401544,"28":-0.24905737104370906,"29":-0.25233859787892815,"30":-0.383704916107837,"31":-0.09165303503726534,"32":-0.32214323737991024,"33":-0.021903317935685517,"34":-0.32113530215538405,"35":-0.005987825350075123,"36":-0.8930140359527818,"37":-0.03462143344076287,"38":-0.3917741385667417,"39":-0.01940580842648579}},"16":{"bias":-0.6496604417587291,"weights":{"0":-0.5220917242770847,"1":-0.32506789721251506,"2":0.1841206462392214,"3":0.09552125268547262,"4":-0.2598575928765102,"5":-0.5416114829155361,"6":-0.47341032214674045,"7":-0.2885353926214447,"8":-0.32176154523853634,"9":-0.005064952190411133,"10":-0.31184838363514344,"11":-0.3532105850548068,"12":-0.05500920102885149,"13":-0.448448281007892,"14":-0.12518571853046628,"15":-0.3606661335876536,"16":-0.4004301487954165,"17":-0.2586865564168346,"18":0.7535131908786621,"19":-0.2661772346112635,"20":-0.3826435558102072,"21":-0.5003141730175175,"22":-0.27826662685285203,"23":-0.0925531866805026,"24":-0.3664236762719094,"25":-1.2733834242747786,"26":-0.4855405717816399,"27":-0.5368675275047817,"28":-0.17471107030644567,"29":-0.4727503070300566,"30":-0.35248147315104206,"31":-0.7322193356902513,"32":-0.23632404873574417,"33":-0.21104276694113405,"34":-0.1651167839280415,"35":-0.42024608201377195,"36":-0.1754516709741494,"37":-0.27714365992341106,"38":0.036364276254582786,"39":-0.29048469596261195}},"17":{"bias":-0.7261585334259166,"weights":{"0":-0.2900683997522643,"1":-0.4054911759791231,"2":-0.9496697377307645,"3":-0.3375146075858904,"4":-0.349727187087169,"5":-0.2939229498181743,"6":-0.15203035553282918,"7":-0.027107683429530766,"8":-0.2836066191950413,"9":-0.4399896191217869,"10":-0.1703273737482466,"11":-0.312874798680575,"12":-0.22960470903875987,"13":-0.15814221419410096,"14":-0.33478844103405375,"15":0.009992521697193226,"16":-0.26059246519619955,"17":-0.38800488103424474,"18":-0.6098556825331417,"19":-0.34407512766144527,"20":-0.21045073151002466,"21":-0.13220170898550607,"22":-0.23805792614046412,"23":-0.09124484284570206,"24":-0.3047161264770082,"25":-0.42639196395720397,"26":-0.230668157790268,"27":-0.11054197494232157,"28":-0.10011289333523615,"29":-0.03904497890981544,"30":-0.32952242519594693,"31":-0.4307596696712513,"32":-0.15997291401908628,"33":-0.15479952427912913,"34":-0.2844759517485325,"35":-0.06122578927130999,"36":-0.36730551663378186,"37":-0.10531492092799231,"38":-0.0076018899590313185,"39":-0.15344712202976546}},"18":{"bias":-3.910550037656329,"weights":{"0":-0.2067210295251226,"1":-1.2076881706443432,"2":-2.486519640279434,"3":9.352027892620468,"4":-1.0042626085029898,"5":-0.02178387127711034,"6":-0.4012208420368761,"7":-0.01623992014900959,"8":-0.9454883610173429,"9":0.3753778145647684,"10":-0.2745487685456725,"11":-1.1931815345389025,"12":0.8666248479932521,"13":-0.10158177326677237,"14":-0.4860355232148647,"15":-0.11876778409792411,"16":2.537698004319488,"17":-0.9098366595328127,"18":3.404372552749869,"19":-0.529529394688892,"20":-0.7485989850763528,"21":-0.739635551702078,"22":-0.3299074116045814,"23":-0.14916751380823653,"24":0.01868201178479598,"25":1.1170919279131544,"26":-0.3202550280923121,"27":-0.31253347502366474,"28":-0.08444223798850352,"29":-0.10602533678294297,"30":-0.6955788896369745,"31":0.6018613425763797,"32":-0.6499833959535759,"33":-0.5184321687894772,"34":0.24514578580541568,"35":0.012590917519809132,"36":2.05214524781639,"37":-0.5990617314194732,"38":0.05870323410973031,"39":-0.07566768990083866}},"19":{"bias":-0.7918221622627775,"weights":{"0":-0.30468947008127417,"1":-0.4345302193374323,"2":-0.03486362609979098,"3":-0.1547859807571199,"4":-0.2524902532272709,"5":-0.2260152806125867,"6":-0.22717719539609288,"7":-0.3435961141738778,"8":-0.08557025585236092,"9":-0.4184338437991727,"10":-0.1036437587246592,"11":-0.4350986622892299,"12":-0.419031896675173,"13":-0.43055078035179506,"14":-0.4010047079891758,"15":-0.38802393610640556,"16":-0.3835156836407358,"17":-0.19440627977717556,"18":-0.6377244881233999,"19":-0.2818446363308724,"20":-0.3360463364721739,"21":-0.4843179016213199,"22":-0.3536876720592421,"23":-0.3530689509099121,"24":-0.18599782235902151,"25":-0.5099998445922669,"26":-0.08849982294491712,"27":-0.1901835928063236,"28":-0.061638995832681974,"29":-0.17160203420916983,"30":-0.39928306631892563,"31":-0.43256859937992975,"32":-0.27801178585550446,"33":-0.06480312911859945,"34":-0.08682587609852369,"35":-0.42998395765920644,"36":-0.2776379935491907,"37":-0.31763024702140347,"38":-0.26646669659930433,"39":-0.32505546059770757}},"20":{"bias":-0.8580348753822586,"weights":{"0":-0.36553257387048366,"1":-0.40800165481204637,"2":0.5084674411476634,"3":0.270533284597648,"4":-0.15262549850094198,"5":-0.39340245592092266,"6":-0.24644954336397815,"7":-0.27715541272467736,"8":-0.3098214789329546,"9":0.18780604776487936,"10":-0.4625698316160752,"11":-0.3523836148052565,"12":-0.12215495625552343,"13":-0.2640714870849171,"14":-0.3714205824854121,"15":-0.28559595710791724,"16":-0.729116087659784,"17":-0.2981047391273228,"18":0.6119974043196275,"19":-0.3523845818111022,"20":-0.31685122447318165,"21":-0.47616541783760696,"22":-0.24994265993148357,"23":-0.1380581314338796,"24":-0.43722292149159775,"25":-1.045213739978242,"26":-0.32622980786128775,"27":-0.5595406383404918,"28":-0.1848295250269623,"29":-0.3151477821666962,"30":-0.350704275850264,"31":-0.7693337904695433,"32":-0.1397581948648853,"33":-0.24781595952548993,"34":-0.09254250591561418,"35":-0.43767619737345886,"36":-0.35747369915161503,"37":-0.28566832570239203,"38":0.06159118553362311,"39":-0.21248453632593745}},"21":{"bias":-0.9398831982413914,"weights":{"0":-0.6555629768473726,"1":-0.5742573655709864,"2":0.11235507132437574,"3":-0.22106897588292496,"4":-0.37573729797335337,"5":-0.6295007464408157,"6":-0.2109024077692351,"7":-0.5297396766810487,"8":-0.2426852110893056,"9":1.5117971975311641,"10":-0.5283198239781466,"11":-0.5342126612666137,"12":1.2731886358312805,"13":-0.64578906532973,"14":-0.4280675132165799,"15":-0.3785353884593753,"16":-0.8162424279658004,"17":-0.5001255264313357,"18":0.3202862280249114,"19":-0.43443227616091423,"20":-0.6657459513899793,"21":-1.3237706082017942,"22":0.07204976846073342,"23":0.017568757039698103,"24":-0.7246506568847543,"25":-1.2612038682773288,"26":-0.5645743363946915,"27":-0.5884958836250247,"28":-0.02124749374963396,"29":-0.4370888288758241,"30":0.01388967201212643,"31":-0.8482000078383943,"32":0.015049857341660791,"33":-0.5121411530174027,"34":0.5485869207355604,"35":-0.6283096662625779,"36":0.9200572956748899,"37":-0.28596205205492264,"38":0.28390457097162713,"39":-0.5301424906651342}},"22":{"bias":-0.7127768986675597,"weights":{"0":-0.470808360306641,"1":-0.20740774573137358,"2":0.166800413231477,"3":-0.23890669858969754,"4":-0.18126592853433499,"5":-0.492766530808489,"6":-0.348850218273589,"7":-0.41048033541382006,"8":-0.02198914769070624,"9":-0.02272787351577121,"10":-0.322086335694636,"11":-0.3450126123485841,"12":-0.08356264923739909,"13":-0.43958313542038735,"14":-0.11325965847705145,"15":-0.2690186274660376,"16":-0.7663382834645095,"17":-0.20304128812810154,"18":0.3346164657841123,"19":-0.5042478081178717,"20":-0.301755955409995,"21":-0.5023461301959334,"22":-0.38903509944463516,"23":-0.0105315214486363,"24":-0.46449052392192003,"25":-1.0226444490520752,"26":-0.4837450043822045,"27":-0.48384974910855344,"28":-0.21352558778916012,"29":-0.18712889128692897,"30":-0.27577942878232375,"31":-0.6503488103647472,"32":-0.14953123295535972,"33":-0.35478604574533606,"34":-0.2949172465761501,"35":-0.4934534456366223,"36":-0.4629005453189948,"37":-0.21274744966965595,"38":-0.05397066553087266,"39":-0.2886699602078058}},"23":{"bias":-0.7744706208416381,"weights":{"0":-0.25369075297188215,"1":-0.31378081983525735,"2":1.4762747909231015,"3":-0.42234595647216333,"4":-0.42042486257424694,"5":-0.28927150259294593,"6":-0.4688609172210486,"7":-0.5473309730405371,"8":0.42157394538516163,"9":-0.12000674223633653,"10":-0.28022275072531266,"11":-0.26902039616622064,"12":-0.5780344075095336,"13":-0.5800939431734778,"14":-0.16285851334802157,"15":-0.3729169501478059,"16":-0.6253482733445634,"17":-0.43631080020668744,"18":-1.02279891093194,"19":-0.24477528464144477,"20":-0.22059056731304252,"21":0.09896146469467143,"22":-0.30680653013957443,"23":-0.32967646161552305,"24":-0.22026727244398528,"25":0.11095771305930885,"26":-0.5937332443202761,"27":-0.41946244003450417,"28":-0.34706444016930516,"29":-0.2602131991142528,"30":-0.36296685675144336,"31":-0.397726906684369,"32":-0.33321628989749064,"33":-0.23816008098047634,"34":-0.3458747443155373,"35":-0.5000362102130071,"36":-1.291256389179844,"37":-0.3916041517545894,"38":-0.36503477018224617,"39":-0.1973602249170967}},"24":{"bias":-0.810385858098233,"weights":{"0":-0.09242879350706174,"1":-0.20031316635134352,"2":0.09577646254573771,"3":-0.24943696972328364,"4":-0.47453613957483,"5":-0.47375931407935495,"6":-0.011367602788717021,"7":-0.36433223351735083,"8":-0.1825340557374581,"9":-0.4587870128096659,"10":-0.28120625784074765,"11":-0.23750393411612192,"12":-0.3855518175428885,"13":-0.3620442511448226,"14":-0.06964618485346147,"15":-0.017896396580540774,"16":-0.7464936688556991,"17":-0.1430849027500401,"18":-0.7933687578167254,"19":-0.4033241171981592,"20":-0.4214760260976996,"21":-0.27268289863675993,"22":-0.38746815833979903,"23":-0.1794792366729173,"24":-0.16064816048523706,"25":-0.44259632738701266,"26":-0.41080620910784976,"27":-0.4759966193708906,"28":-0.15671856857442587,"29":-0.09234255133312767,"30":-0.05869381467201015,"31":-0.27582619548945675,"32":-0.13990610187172325,"33":-0.32457804140051916,"34":-0.101401313057687,"35":-0.16401440002337814,"36":-0.4021121723520414,"37":-0.22123499020156578,"38":-0.31254487415913257,"39":-0.2106323591057628}},"25":{"bias":-0.8195927696270883,"weights":{"0":-0.3663108526971561,"1":-0.5128151874173495,"2":0.1616421409558328,"3":0.08331125382240481,"4":-0.37526663392117016,"5":-0.472325859809455,"6":-0.15477041002150776,"7":-0.30728835812388433,"8":-0.3271362859630962,"9":0.26683547481596886,"10":-0.2361354846329286,"11":-0.29805911558077597,"12":0.1489441888119857,"13":-0.37693015682664976,"14":-0.2309573624369658,"15":-0.34473391555147215,"16":-0.7166200743854856,"17":-0.4068168780450663,"18":0.29858532767099066,"19":-0.4746835017765365,"20":-0.3822890604459258,"21":-0.45107641640266366,"22":-0.36033768527613164,"23":-0.05641333392833003,"24":-0.47805559339245707,"25":-1.0797321244738256,"26":-0.4235166783096478,"27":-0.4462178371574119,"28":-0.13617452952715947,"29":-0.5742558497112802,"30":-0.017553722197322694,"31":-0.45873865916433076,"32":0.046731161304035616,"33":-0.31498416823060715,"34":-0.15548565563010971,"35":-0.27260176448684986,"36":0.000607930365905616,"37":-0.0794905988205042,"38":0.07851220371748441,"39":-0.4956403232429909}},"26":{"bias":-1.4885229034235004,"weights":{"0":0.4069954414944447,"1":0.030004118980840228,"2":-2.856670280898102,"3":1.3313106580382648,"4":0.30922377064612044,"5":0.3443741131742796,"6":0.06469398882897129,"7":0.4317156898152639,"8":-1.8465654306094008,"9":-2.3425182498896246,"10":-0.3230111207332687,"11":0.04153558835021192,"12":-0.7071089531132518,"13":1.2168838421887833,"14":-0.015984817691987466,"15":-0.1589560822538683,"16":0.7634377290401686,"17":0.20406108009493643,"18":-6.70234139632052,"19":0.6546606971159272,"20":0.3353652378397766,"21":1.3326142185493346,"22":-0.5907049867207741,"23":-0.6651968010991258,"24":0.9416349447163992,"25":2.0079513902873916,"26":0.8840023648426604,"27":1.042936656280196,"28":-0.8113265545771968,"29":0.13229952506206458,"30":-0.3965467321339853,"31":2.3408586398875806,"32":-0.9188801456771091,"33":0.2342737416555199,"34":-1.01530605974562,"35":0.5974740799204612,"36":-3.157129527134009,"37":-0.3810246576900067,"38":-0.8408893446881095,"39":-0.06567614509691576}},"27":{"bias":-0.638398329188269,"weights":{"0":-0.34505029022163586,"1":-0.3452161678185865,"2":0.36546440570805977,"3":-0.1624291578364974,"4":-0.22504601073329852,"5":-0.6038265772059522,"6":-0.47636019408071206,"7":-0.3076834710353203,"8":-0.13145457789243975,"9":0.0005776757596654264,"10":-0.3528150971280855,"11":-0.37687699349992704,"12":-0.28241689708553225,"13":-0.6035089854996627,"14":-0.14644519592414545,"15":-0.5323579327774383,"16":-0.46475630050887035,"17":-0.3711442122790374,"18":0.3752784256188532,"19":-0.4574942181446845,"20":-0.3482803635132964,"21":-0.6002948684247511,"22":-0.21079868014371136,"23":-0.04307745510331895,"24":-0.24908122937164795,"25":-1.1938537147960362,"26":-0.4696817143739465,"27":-0.4303059163670869,"28":-0.4385964937938468,"29":-0.3688109308226942,"30":-0.23468262916614613,"31":-0.4430032130164966,"32":-0.401136810075949,"33":-0.3882742525699784,"34":-0.248916168395259,"35":-0.4482469632251949,"36":-0.18410756304091305,"37":-0.25923426735134436,"38":-0.11153710363099185,"39":-0.19562644464756107}},"28":{"bias":-0.7301300322252159,"weights":{"0":-0.2187393611282401,"1":-0.3497506390376358,"2":-0.8375591669259995,"3":-0.298362548095797,"4":-0.20131740562767694,"5":-0.11743503895779313,"6":0.015453065753611146,"7":-0.3666408672216354,"8":-0.2523931578668322,"9":-0.4714588441118552,"10":-0.3657528656615289,"11":-0.18652025364591712,"12":-0.18127390175588884,"13":-0.4376200198887277,"14":-0.3724860533447773,"15":-0.052151494707776386,"16":-0.5767405720131344,"17":-0.3993228513031725,"18":-0.33380262398402255,"19":-0.28786028216302084,"20":-0.22728082148810044,"21":-0.5074927410414604,"22":-0.1766969566581133,"23":-0.19412995540407377,"24":-0.12702378124869024,"25":-0.5399248704337426,"26":-0.09784483448032064,"27":-0.18524691541404034,"28":-0.2081186608724775,"29":-0.16257286730305057,"30":-0.23180448485969107,"31":-0.2852104138915073,"32":-0.2594522867973399,"33":-0.1959238093515568,"34":-0.35170004176675335,"35":-0.15651717095926113,"36":-0.2673021074326213,"37":-0.2828473549438397,"38":-0.19671482800091114,"39":-0.35745428474832647}},"29":{"bias":-0.5647970539692896,"weights":{"0":-0.25682770283276657,"1":-0.33574472602221556,"2":-1.7282704878214097,"3":-0.6503468071413872,"4":-0.4490434195582948,"5":-0.14361551582564633,"6":-0.2492058179007024,"7":-0.06551283673760191,"8":-0.330720517017241,"9":-0.3210284120508164,"10":-0.1202533171293497,"11":-0.3969346118125741,"12":-0.29674969654693495,"13":-0.3750894719294835,"14":-0.25782781794127196,"15":-0.1991333553678838,"16":-0.3561177750476538,"17":0.035724670107127085,"18":-0.4338583765598278,"19":-0.09081829119208573,"20":-0.1931720490993373,"21":-0.22250112148052054,"22":-0.24008303882833992,"23":-0.02608303601145827,"24":-0.014345112772724142,"25":-0.17992237784400392,"26":-0.02055855819854281,"27":-0.3594430758193925,"28":-0.07223439921920301,"29":-0.014986295356405438,"30":-0.2877125138636306,"31":-0.10955301989382728,"32":-0.0847338760061746,"33":0.06329875358093212,"34":-0.21713318700312312,"35":-0.00724125528259125,"36":-0.6843076437760539,"37":-0.14183582470744951,"38":-0.10474222222710956,"39":-0.11291884787005854}},"30":{"bias":-0.8203405667746355,"weights":{"0":-0.17177600663994486,"1":-0.2136475711191958,"2":-0.8383708020139873,"3":-0.7085642651214984,"4":-0.4128877082282252,"5":-0.013253986909444656,"6":-0.11530167078198295,"7":-0.23267189624615,"8":0.04001803637266656,"9":-0.5382144267486285,"10":-0.10287297713173278,"11":-0.32376669274663816,"12":-0.6056064787514639,"13":-0.2220515030400728,"14":0.0007453854155995393,"15":-0.05777109586042195,"16":-0.47443313765731865,"17":-0.4023683261280605,"18":-1.4835276574543987,"19":-0.2055517069653087,"20":-0.07843378342748925,"21":-0.28486889083822925,"22":0.01595997026574899,"23":-0.10482204761722497,"24":-0.2586565640161214,"25":-0.040757247414909874,"26":-0.11450314456839314,"27":-0.44709399925946314,"28":-0.0964651318171737,"29":-0.1671815001228337,"30":-0.23855652729975294,"31":-0.10643456086133703,"32":-0.24606161323857095,"33":-0.01281144304425596,"34":-0.14052772690617693,"35":0.004446818335969157,"36":-0.48881805720082705,"37":-0.24098463467418846,"38":-0.2601231545625736,"39":0.005925154860517046}},"31":{"bias":-0.7420882538104817,"weights":{"0":-0.3812382441418657,"1":-0.4906026906160252,"2":-0.13014944170159568,"3":-0.27358313962235936,"4":-0.17517351488074076,"5":-0.4845294282507887,"6":-0.2594459137238979,"7":-0.2451120699970413,"8":0.0437809971439528,"9":-0.1632275539985179,"10":-0.05944641048825391,"11":-0.380506523662267,"12":-0.5021521717570577,"13":-0.1628384790980079,"14":-0.2788101309702006,"15":-0.08245711251147071,"16":-0.3615828161832498,"17":-0.2787179002117195,"18":-0.4457185289894579,"19":-0.297792575694272,"20":-0.3145650848067853,"21":-0.13643999962597764,"22":-0.4344481777741555,"23":-0.3525667072179419,"24":-0.24179896961069824,"25":-0.4726152567437234,"26":-0.21550089474577538,"27":-0.3865826709052297,"28":-0.2691788068514665,"29":-0.06938694667576681,"30":-0.3035358658005255,"31":-0.34192403119045756,"32":-0.07741576106380216,"33":-0.07193957287901814,"34":-0.11726058351768151,"35":-0.07699526970591179,"36":-0.6593491531614124,"37":-0.3376059929764286,"38":-0.2135054413156702,"39":-0.40028543187224}},"32":{"bias":-0.7719136786938566,"weights":{"0":-0.32997916230942614,"1":-0.47818582145086774,"2":0.3460365722026895,"3":-0.3383034307197068,"4":-0.11950082694041521,"5":-0.20192993114666416,"6":-0.38059333166148257,"7":-0.3517531949661701,"8":0.11545791665148489,"9":-0.3370673710014309,"10":-0.09754302036787531,"11":-0.4994376000491102,"12":-0.40938468650804305,"13":-0.5217367000075585,"14":-0.3615832035762093,"15":-0.34767480307111687,"16":-0.5605048963641648,"17":-0.27686659294018434,"18":-0.2096283121837741,"19":-0.3302201063038169,"20":-0.40320649946130166,"21":-0.3495803203410556,"22":-0.5168077517298127,"23":-0.04121706244061329,"24":-0.23264690528603116,"25":-0.7460859052332376,"26":-0.3663880050141724,"27":-0.2411611234449218,"28":-0.39873492030429797,"29":-0.3036490410140734,"30":-0.41191618822413756,"31":-0.5272929886857135,"32":-0.27691304280677786,"33":-0.3531842309708427,"34":-0.36402295977792987,"35":-0.3379821739883133,"36":-0.33484442849067786,"37":-0.24634266364144233,"38":-0.2572383010038388,"39":-0.135467112660992}},"33":{"bias":-0.5833187328925874,"weights":{"0":0.09142601987428467,"1":-0.49824408872251447,"2":-0.7800344896852323,"3":-0.8221163538436222,"4":-0.4136743021609884,"5":-0.2674153192437651,"6":0.09440468267536775,"7":-0.14773898008543265,"8":0.31140776250915175,"9":-0.15091525578282702,"10":-0.1458134269136517,"11":-0.0789783326164209,"12":-0.7867460473951086,"13":-0.2703167240441012,"14":-0.015548480784475205,"15":-0.20400059885357832,"16":-0.2963092641743816,"17":-0.40576812729819217,"18":-1.926938093408606,"19":-0.3121215360206979,"20":-0.2741091880925305,"21":0.3461544868540383,"22":-0.19833932073335198,"23":-0.3299274034076571,"24":-0.16236816273612184,"25":0.9239303773696813,"26":-0.21112909570296223,"27":0.010750988688521092,"28":-0.29185009751149005,"29":-0.03170415154674658,"30":-0.273241422638647,"31":0.10153085763694776,"32":-0.5408358730430274,"33":-0.41057128109556523,"34":-0.26323080522909736,"35":-0.3066096821531833,"36":-1.0518986634035044,"37":-0.20183012648979046,"38":-0.49187229016340217,"39":0.09356719958740412}},"34":{"bias":-0.538782673083197,"weights":{"0":-0.2529124563217286,"1":-0.2609620498796088,"2":-1.502927420908078,"3":-0.7414280869787113,"4":-0.13265019905933242,"5":-0.07609359806050993,"6":0.09986674245500732,"7":0.03225644240581607,"8":-0.08524865403286985,"9":-0.20075698399935948,"10":0.0491054927587815,"11":-0.13290855425509493,"12":-0.48134976142215985,"13":-0.26472052590160344,"14":0.00370166693300378,"15":-0.04697432338462118,"16":-0.16241042193315822,"17":-0.23943446298806514,"18":-1.4944039141905638,"19":-0.13611353218077327,"20":-0.23170657536417774,"21":0.46048953847214563,"22":-0.30648280986292276,"23":-0.1511945025415459,"24":0.06223346205499856,"25":0.5657801540565681,"26":-0.430411673631998,"27":-0.09469881956814169,"28":-0.32299289267503034,"29":0.023306047010524817,"30":-0.4261998699913082,"31":-0.24477194063692592,"32":-0.265971577368526,"33":-0.05398922307527899,"34":-0.19936702136521484,"35":-0.2946908856113219,"36":-0.9128392451086619,"37":-0.37170168706158613,"38":-0.09320811622167077,"39":-0.040438499209995656}},"35":{"bias":-1.342544849371874,"weights":{"0":-0.28354667065417716,"1":-1.3743089476774442,"2":-0.4082926206239787,"3":4.430254451982417,"4":-1.046630577913855,"5":-0.10010740694451005,"6":0.11093347278230918,"7":-0.3524675884299693,"8":1.6771492076913708,"9":-1.0055464639202347,"10":-0.1143453063634191,"11":-0.9118262048703092,"12":1.4961795707271093,"13":-0.5237256111301614,"14":-0.153445964841967,"15":-0.16371589147339577,"16":-3.7632070120630376,"17":-0.7522707740782971,"18":2.0441526359129614,"19":-0.7834832424117768,"20":-1.4331454109123698,"21":-1.5412516925747812,"22":0.30113998431463285,"23":0.31091913439441843,"24":-0.31729622210959246,"25":0.2049952704135758,"26":-0.6275075955869236,"27":-0.8739836792454517,"28":0.2907916311402079,"29":-0.070251289894451,"30":-0.343571009847618,"31":-0.200413707306382,"32":-0.13659122110375382,"33":-0.39179526320255265,"34":1.199354531958556,"35":-0.12700056236096752,"36":0.27329324972105734,"37":0.11003930149211584,"38":1.1973000184367628,"39":0.06416653308419144}},"36":{"bias":-0.6828991373149622,"weights":{"0":-0.06784590192013808,"1":-0.40290481389252186,"2":-0.8157968668056207,"3":-0.14936236361044614,"4":-0.3445750343053112,"5":-0.394969861353143,"6":-0.1241957077430247,"7":-0.18569607483212786,"8":-0.34853105123483097,"9":-0.4453339854570906,"10":-0.1803886209319874,"11":-0.4246444057512529,"12":-0.19585917097431838,"13":-0.40238151939897615,"14":-0.37927819651540085,"15":-0.3900125775903664,"16":-0.41324895875639484,"17":-0.3198123781069567,"18":0.04328602716621712,"19":-0.4283153327219229,"20":-0.18299678903893266,"21":-0.2973288736638579,"22":-0.1295110045449706,"23":-0.3029517725300116,"24":-0.5004528761628424,"25":-0.5611274648682433,"26":-0.2179374007732108,"27":-0.3992532562178593,"28":-0.07334671701563096,"29":-0.39960252635403803,"30":-0.06232635300171295,"31":-0.39771973998053883,"32":-0.11822323889365986,"33":-0.08447368437714432,"34":-0.14477124040742234,"35":-0.14643455473768938,"36":-0.3303289601502072,"37":-0.3366291111087976,"38":-0.0371158695696114,"39":-0.28217707873197523}},"37":{"bias":-0.7432603692853236,"weights":{"0":-0.33853038252219286,"1":-0.1983615573178758,"2":0.26607790056879005,"3":0.08922871200791024,"4":-0.20525559759791012,"5":-0.38803667785631263,"6":-0.30662063413896845,"7":-0.3276294715005284,"8":-0.36500776731886275,"9":-0.0003885173288820116,"10":-0.41455390972814077,"11":-0.3806708518797989,"12":-0.11857223785498643,"13":-0.45915854736227024,"14":-0.2077583672325621,"15":-0.3095456558063354,"16":-0.5361499869901657,"17":-0.39018083169695456,"18":0.03668199318678355,"19":-0.33690460692788143,"20":-0.3767567731070608,"21":-0.342473232951936,"22":-0.11406572559320777,"23":-0.3087693384651093,"24":-0.4886964842671132,"25":-0.9231501742983691,"26":-0.3257331132909776,"27":-0.2434984159794527,"28":-0.3657995517037057,"29":-0.4600577490960564,"30":-0.12630371215505318,"31":-0.49679807794800374,"32":-0.18928505566674503,"33":-0.34826555799301956,"34":-0.02694541271356399,"35":-0.19465678519170584,"36":-0.21228847187795055,"37":-0.2297107728276535,"38":0.07910424850916839,"39":-0.3846605995639076}},"38":{"bias":-0.8238942059231159,"weights":{"0":-0.32358126101801704,"1":-0.4104177372388503,"2":0.2652088598866412,"3":1.240484109867684,"4":-0.4171738994376793,"5":-0.39298539685408723,"6":-0.1480534298488604,"7":-0.14975612085524542,"8":-0.17714669575235312,"9":0.29301403475764676,"10":-0.1409730581722864,"11":-0.3236490952607882,"12":0.7751427487880872,"13":-0.5512433588572345,"14":-0.5023846582583245,"15":-0.17040880208990378,"16":-0.7525559567590856,"17":-0.599199788777415,"18":1.0092254451413616,"19":-0.5396645277492562,"20":-0.4054500247718463,"21":-0.6552096122002842,"22":0.0516333194335457,"23":0.12890403251987242,"24":-0.5042147379781343,"25":-1.4877315917593472,"26":-0.2825597103347992,"27":-0.32451210153430615,"28":-0.09419442337363172,"29":-0.20380176159119995,"30":-0.15119584932875418,"31":-0.40127005160478924,"32":-0.4588475041130394,"33":-0.4052008378365517,"34":0.2403633567537144,"35":-0.441089608601179,"36":0.024000695551607467,"37":-0.3490846959363355,"38":0.2987840143703644,"39":-0.10877897394983786}},"39":{"bias":-0.7335173862118352,"weights":{"0":-0.34966634338035,"1":-0.381375723687329,"2":0.13566890473233556,"3":0.23401499062905629,"4":-0.08952187746822728,"5":-0.4770234213644236,"6":-0.46939433067995473,"7":-0.1823015056871603,"8":-0.5838087196043242,"9":0.42339323420693853,"10":-0.4253115864448825,"11":-0.19837163386972323,"12":0.42472836042879486,"13":-0.45868716095041207,"14":-0.49485712108024177,"15":-0.18466063560208743,"16":-0.5654471294404222,"17":-0.3251605963159692,"18":0.49979464809896124,"19":-0.3630964614434352,"20":-0.4182944395855993,"21":-0.4939136752084615,"22":-0.2935829511917179,"23":-0.23700423010601868,"24":-0.4697651536886509,"25":-1.0929967821728988,"26":-0.5611187556957735,"27":-0.37752276487447295,"28":-0.11167048472498231,"29":-0.3817729406463089,"30":-0.34206713327739174,"31":-0.5015958869262226,"32":-0.13930115461502918,"33":-0.49324223919567606,"34":-0.10937136395616424,"35":-0.2959134930888109,"36":0.3200698628256908,"37":-0.4089282786029385,"38":0.17031897308499597,"39":-0.2082089916930099}}},{"price":{"bias":-0.045954472309347724,"weights":{"0":0.5885076670127902,"1":-6.681323932615335,"2":0.611747595386719,"3":0.8505380297762517,"4":0.4908162600434688,"5":-0.17167966803926624,"6":0.84725488659423,"7":-1.3443099777987368,"8":-0.6568703658070405,"9":5.974564388284086,"10":-0.7064916154104834,"11":1.1349050924684623,"12":-2.0192759799021998,"13":0.6999644104697994,"14":1.087904406798038,"15":1.0802581654473142,"16":0.517828511481773,"17":0.7280310394745843,"18":1.4989270140388087,"19":0.5815431223057888,"20":0.45507582371010863,"21":-1.3405466980304597,"22":0.5460135760302988,"23":1.345885686807694,"24":0.6804909882336374,"25":0.13657877778719668,"26":-5.88997858534933,"27":0.5395852895005911,"28":0.6192127272920109,"29":1.024336310179592,"30":0.9316828884341578,"31":0.73787588897341,"32":0.6926927299740024,"33":1.3410968010425248,"34":1.2428864192140643,"35":-2.027583536154071,"36":0.5796743896307748,"37":0.36868112604546754,"38":-0.31231506468899134,"39":-0.08726123366328334}}}],"outputLookup":true,"inputLookup":true}