{"layers":[{"sq_mt":{},"rooms":{},"long":{},"lat":{}},{"0":{"bias":-1.6811000508868392,"weights":{"sq_mt":-1.1047534049815322,"rooms":0.44918883180818797,"long":1.64084651278203,"lat":-1.7014625124959941}},"1":{"bias":0.20364610280867204,"weights":{"sq_mt":5.5094561022699375,"rooms":1.34178431372196,"long":-5.062395220937481,"lat":0.5484689320993441}},"2":{"bias":-0.052661269849489205,"weights":{"sq_mt":2.3647379306321086,"rooms":0.16903010468070612,"long":-2.8071254653984052,"lat":-0.4049856415743123}},"3":{"bias":-0.4563757580625032,"weights":{"sq_mt":0.7494450995417251,"rooms":-0.017966065188579152,"long":-1.7474994112968998,"lat":-0.6115588698326199}},"4":{"bias":0.2621696009719109,"weights":{"sq_mt":0.9702277347555242,"rooms":0.1182562977921684,"long":-2.517723268200481,"lat":-0.8751217064017061}},"5":{"bias":0.037817259909783366,"weights":{"sq_mt":2.477624032993253,"rooms":0.3408373102356549,"long":-3.4698685516093257,"lat":-0.29781684584097734}},"6":{"bias":0.3158562999001066,"weights":{"sq_mt":3.9184392546557225,"rooms":0.5865818368781446,"long":-4.020196006008883,"lat":0.05571265110999537}},"7":{"bias":-0.4269044898076277,"weights":{"sq_mt":3.6840405518232204,"rooms":0.9196786919465432,"long":-3.1623488085226525,"lat":0.12668163357502327}},"8":{"bias":-2.483369205991037,"weights":{"sq_mt":-8.671755506303997,"rooms":-0.6781011312804178,"long":2.041724139510429,"lat":5.668056907812784}},"9":{"bias":0.1286074939497583,"weights":{"sq_mt":2.11728919287516,"rooms":0.16716252280473573,"long":-2.904171044713016,"lat":-0.07370432078331007}},"10":{"bias":0.3037008544339791,"weights":{"sq_mt":4.111691060954263,"rooms":0.665692253165867,"long":-4.316719314913835,"lat":0.047087682372837156}},"11":{"bias":2.9720972416796223,"weights":{"sq_mt":-5.669101142780485,"rooms":-1.140861854818548,"long":-0.5545001070394672,"lat":-2.3765460587922833}},"12":{"bias":-0.5893935412086484,"weights":{"sq_mt":0.9743956869755752,"rooms":0.11960102124294436,"long":-1.7181067070697713,"lat":-0.587924642079868}},"13":{"bias":8.257099181234754,"weights":{"sq_mt":-4.849166038251777,"rooms":0.3029531198052471,"long":-3.5884944079078958,"lat":-11.129217710119802}},"14":{"bias":0.30720670122174865,"weights":{"sq_mt":-1.5097165168318583,"rooms":-0.16651574773082337,"long":-0.4931388707454452,"lat":-1.3182112987878047}},"15":{"bias":-0.4159522534129369,"weights":{"sq_mt":4.878298484455761,"rooms":1.3662916644512764,"long":-3.9762921485528318,"lat":0.44911773102336705}},"16":{"bias":0.22015832314748374,"weights":{"sq_mt":-4.164191778994755,"rooms":7.031477161489076,"long":-13.467905169626563,"lat":13.799586636298573}},"17":{"bias":-1.2037633923760094,"weights":{"sq_mt":1.3579678058178377,"rooms":0.692604230138781,"long":-0.8918187031892995,"lat":-0.7293024082804997}},"18":{"bias":1.4041309415896166,"weights":{"sq_mt":2.8414164779506104,"rooms":0.1852672268671149,"long":-4.764691223082062,"lat":-0.19865432167412655}},"19":{"bias":-0.22768399491637825,"weights":{"sq_mt":1.3256024558887163,"rooms":-0.030787531412306408,"long":-2.2143422110506075,"lat":-0.5045607968636838}},"20":{"bias":-1.05230512053241,"weights":{"sq_mt":0.6275704925511039,"rooms":0.027839921481959108,"long":-1.0766358198534791,"lat":-0.5558696296751348}},"21":{"bias":-0.23380909149284682,"weights":{"sq_mt":3.617373542031334,"rooms":0.7246109148096148,"long":-3.533770892818738,"lat":-0.00941917167354787}},"22":{"bias":-4.987596416982208,"weights":{"sq_mt":-0.36096191711871944,"rooms":1.22750101136342,"long":5.019639472838085,"lat":0.8733503447577876}},"23":{"bias":-0.24753970719947888,"weights":{"sq_mt":-0.5686689654462612,"rooms":-0.045894806775816935,"long":-1.1203396664008682,"lat":-0.9451253077512803}},"24":{"bias":-3.9469209599451824,"weights":{"sq_mt":-0.050268109765496206,"rooms":3.7190233471524365,"long":3.8497029007051577,"lat":-3.7010589056155294}},"25":{"bias":-7.050071814221364,"weights":{"sq_mt":-2.2154921680371515,"rooms":-0.32662605018087704,"long":10.0295997914029,"lat":1.7903628599699246}},"26":{"bias":-0.5801416128936155,"weights":{"sq_mt":0.08197882882876618,"rooms":-0.09029547815474628,"long":-1.1021296652340469,"lat":-0.8042718312750287}},"27":{"bias":-0.2538821132603631,"weights":{"sq_mt":2.121398578203519,"rooms":0.22925224755812976,"long":-2.5782197570321044,"lat":-0.4534954183348616}},"28":{"bias":-0.1306539099303845,"weights":{"sq_mt":-2.220660705204264,"rooms":-1.6637179856936444,"long":0.3402976807079127,"lat":0.15966012045765748}},"29":{"bias":-4.288689882354013,"weights":{"sq_mt":-1.099085752573039,"rooms":-0.002872550765039343,"long":5.818438049079689,"lat":0.7569258274086409}},"30":{"bias":0.5170611652894469,"weights":{"sq_mt":-1.137395395852833,"rooms":-0.020617573696672473,"long":-0.648737901916353,"lat":-1.846233357561701}},"31":{"bias":-5.27907634796772,"weights":{"sq_mt":-0.38453895549363887,"rooms":6.311920214864525,"long":2.7405467078280026,"lat":-2.224098208368366}},"32":{"bias":1.3626697567064732,"weights":{"sq_mt":-2.472727944509923,"rooms":-1.0342841543168535,"long":-2.991037712551553,"lat":0.9203960960723616}},"33":{"bias":-0.31702469909488723,"weights":{"sq_mt":1.5232096240934225,"rooms":0.29289739382003394,"long":-2.3174910710855756,"lat":-0.6919890826607108}},"34":{"bias":-0.4998184770272446,"weights":{"sq_mt":1.9845543144722362,"rooms":0.3356370838222881,"long":-2.4752153131041608,"lat":-0.1865410835881497}},"35":{"bias":-0.29844517305298873,"weights":{"sq_mt":-1.4766485886566814,"rooms":0.1480753349277937,"long":0.7206777729313895,"lat":-2.465055356431283}},"36":{"bias":-0.623607278143602,"weights":{"sq_mt":-3.547852174397165,"rooms":4.395613639220037,"long":-9.151252216861828,"lat":7.289048593557338}},"37":{"bias":1.0110997254492071,"weights":{"sq_mt":4.328086851716696,"rooms":0.6655267956819367,"long":-4.946963579507729,"lat":0.5507305942839353}},"38":{"bias":-5.671463393194279,"weights":{"sq_mt":-1.3941804586034339,"rooms":0.13660739200406627,"long":7.212677852660895,"lat":2.1655656902019014}},"39":{"bias":0.5401175551217802,"weights":{"sq_mt":-2.4112298010239726,"rooms":-0.11945365256661272,"long":0.1611732217157145,"lat":-2.162643598858907}}},{"0":{"bias":-0.16324687575345823,"weights":{"0":-0.23302036706510942,"1":0.5227998514652427,"2":0.017618142910660408,"3":-0.018802698894405355,"4":-0.41679926147546953,"5":-0.13585422279245765,"6":0.3228383755709228,"7":0.19494129512352606,"8":-1.6389903855081365,"9":0.14551010869467593,"10":0.40700266580430183,"11":-1.7434390520651146,"12":-0.15474288420920568,"13":-2.5154160172067597,"14":-0.47609963150106466,"15":0.38642003839983374,"16":0.8175140841882884,"17":0.13055052644072312,"18":0.09294120185250951,"19":-0.23079764481128506,"20":-0.05512264611065939,"21":0.27936577285980774,"22":0.09202786011568563,"23":-0.2730496116600455,"24":-0.04654632043493859,"25":-0.49593062672152,"26":-0.09470621473451139,"27":0.18065160963953564,"28":-0.8392275528678531,"29":-0.29933023331755004,"30":-0.3677574796632549,"31":0.07266177724328099,"32":-0.7928175157945851,"33":-0.11475915128694926,"34":-0.11067765405932696,"35":-0.38154697320391906,"36":-1.539413081849731,"37":0.5892865739624107,"38":-0.2878365716860185,"39":-0.7873394493411056}},"1":{"bias":0.3543062678746093,"weights":{"0":-0.23530351135534297,"1":0.6648249869768614,"2":0.29886229391910313,"3":-0.1513658849281395,"4":-0.2799510645084595,"5":0.09795007908113257,"6":0.41701945193432394,"7":0.2425722460120703,"8":-2.512272048195084,"9":0.07937472809793394,"10":0.40160908468621515,"11":-1.922664906541849,"12":-0.12282145968058208,"13":-3.8645923201290415,"14":-0.714012271451032,"15":0.6942149985998276,"16":1.834146346347734,"17":0.0218497705423306,"18":0.15141241273420633,"19":0.12518463140273015,"20":0.041489290351429696,"21":0.08754326067392307,"22":0.1386533145210048,"23":-0.11047621526293304,"24":-0.08275965869107317,"25":-1.1212555968335394,"26":-0.1447847870876055,"27":0.034285062240044045,"28":-1.0254783013963569,"29":-0.307724920643315,"30":-0.3893295921563185,"31":0.255952060585752,"32":-1.12837820538463,"33":-0.16963704168001575,"34":-0.15056533845750245,"35":-0.6373385455232695,"36":-2.453995600797936,"37":0.6572089617576442,"38":-0.2509073939880698,"39":-0.5295444296681688}},"2":{"bias":-1.3268820906197303,"weights":{"0":-0.8497547230487904,"1":1.9056354983534547,"2":0.7107196395053751,"3":0.19244126484801904,"4":0.5013782007613096,"5":0.701349760601808,"6":1.3927514403372148,"7":0.6400138705056284,"8":-1.5723690720684733,"9":0.6830785101701312,"10":1.506057506412976,"11":0.5043086281352148,"12":0.15536289031803852,"13":0.6069301362351597,"14":-0.13830127711139673,"15":1.3586851144012189,"16":-3.441106651062911,"17":-0.32346154634704744,"18":1.7337080993147782,"19":0.4366755936349914,"20":-0.07241449265918391,"21":0.9946267511814461,"22":-2.7842932720723526,"23":-0.06861361882572305,"24":-1.566593442420855,"25":-3.392237508513513,"26":0.08860060907967532,"27":0.5586341399736603,"28":-0.8581247002107201,"29":-2.547367062123364,"30":-0.08049163754755699,"31":-3.172565410646716,"32":0.8019838307280933,"33":0.0002756834806482108,"34":0.3505267325811276,"35":-0.3072520831497274,"36":3.1754406374669535,"37":1.828688705819992,"38":-3.122961419870671,"39":-0.32778241339116526}},"3":{"bias":-2.5099478330224096,"weights":{"0":-0.26526024135982934,"1":-1.5571325937564218,"2":-0.4626703665176978,"3":0.08370680170486525,"4":0.4554124914044482,"5":-0.5279666882476991,"6":-0.756553031438445,"7":-1.2778360180163284,"8":-2.215717669977041,"9":-0.10582002470065674,"10":-0.746703015983982,"11":3.3753909238841744,"12":-0.16392675634317816,"13":6.571574121281271,"14":1.0292045545203292,"15":-1.7695884749463568,"16":8.310601051380104,"17":-0.640007674291553,"18":0.4838161036478298,"19":-0.014835761960821973,"20":-0.4772534471969131,"21":-1.1435290005097936,"22":-3.583509255256623,"23":0.7800299913324431,"24":-0.6504604172973609,"25":-6.151170034736654,"26":0.24472064121953985,"27":-0.4314993666157512,"28":0.23350062321887124,"29":-3.8184482170688576,"30":1.5788525772275988,"31":-1.8272126434898313,"32":2.5272811777638395,"33":-0.23538019093114787,"34":-0.6103265752635159,"35":1.118790278211368,"36":2.847880120408892,"37":-0.4438153466845588,"38":-5.459658815961592,"39":1.5382739602456366}},"4":{"bias":-0.21074962630041774,"weights":{"0":-0.45933583344044243,"1":0.376562712331441,"2":-0.2034965176783211,"3":-0.14449550037335698,"4":-0.2596435857410233,"5":-0.0040972312215436565,"6":0.14491417548317767,"7":0.15505468668273364,"8":-0.9585340897448803,"9":-0.015065585916024166,"10":0.07338179378350787,"11":-0.7527218319078833,"12":-0.06184771258052082,"13":-1.5111532286263814,"14":-0.10830696798835336,"15":0.2597523795798807,"16":0.6850285060839877,"17":-0.25870654674596666,"18":-0.21652894841578435,"19":0.018498202929818266,"20":-0.2177116461290941,"21":-0.15597759929525218,"22":-0.049106135549032516,"23":-0.18626730716854187,"24":-0.5866605507734464,"25":-0.5877973975846683,"26":-0.17416596801223536,"27":-0.26847307967237716,"28":-0.5028379784802043,"29":-0.3130268837312879,"30":-0.1133148969462194,"31":-0.2461001703703556,"32":-0.227978547327897,"33":-0.024763776207127268,"34":0.020218349515165615,"35":-0.2701555269088842,"36":-0.20934259264436753,"37":0.25762276808517326,"38":-0.308957171861237,"39":-0.2890670835555078}},"5":{"bias":1.054501429788096,"weights":{"0":-1.2803293512176601,"1":3.2478318977032736,"2":1.5834146942361707,"3":1.0675278596053899,"4":1.3760951578966747,"5":1.8331099656858476,"6":2.3194406369878853,"7":1.8355284914044685,"8":-0.07980151782816011,"9":1.787207733000604,"10":2.5166837699417095,"11":1.0590654349399249,"12":0.8841980275479622,"13":0.7753732163710326,"14":0.7327325378822881,"15":2.3536378381736385,"16":2.3709626962646735,"17":-0.026167114649270053,"18":2.832131039875459,"19":1.4077665084594377,"20":0.4599172344339632,"21":2.0652349284306637,"22":-3.745280605285332,"23":0.8563389742539425,"24":-3.9595357110841505,"25":-6.504732967586428,"26":0.5584946835859642,"27":1.5237656140381894,"28":0.44083270338178604,"29":-3.8279969345636045,"30":0.7166929624918428,"31":-4.544904979356445,"32":1.4381701306728703,"33":1.057747102424897,"34":1.2712265698917202,"35":-0.44311695050340033,"36":2.081387046751021,"37":3.079738899041162,"38":-4.003862988406261,"39":0.39174849789351185}},"6":{"bias":-0.35558902747760734,"weights":{"0":-0.3485958253922112,"1":-0.022588375331108117,"2":-0.04243054630812092,"3":-0.21352510161138183,"4":0.005752755765454971,"5":-0.2606114119042818,"6":-0.08610922129990192,"7":-0.17063468383627528,"8":-0.6277887618783058,"9":-0.04999331975509513,"10":0.024865035800065806,"11":-0.4482914599581527,"12":0.05836306614112358,"13":-0.7775387761792456,"14":-0.2545574812785983,"15":-0.07739478048357822,"16":0.1274325426507144,"17":-0.2986605206740686,"18":0.07297981970994838,"19":-0.10181454603812733,"20":-0.34279440451745646,"21":0.021473937970495356,"22":-0.35635021981108017,"23":-0.08935165369512295,"24":-0.5835602198661828,"25":-0.5099975847461871,"26":-0.13635040869078166,"27":0.007691445227010779,"28":-0.37972360827119855,"29":-0.3444295534375247,"30":-0.34889537398732673,"31":-0.291274639135277,"32":0.019008618023318387,"33":-0.22214586965732228,"34":-0.13927443846829654,"35":-0.10167616209818743,"36":0.16162326729815324,"37":-0.11417490785940938,"38":-0.18835389333023325,"39":-0.36759477011656727}},"7":{"bias":-0.9662801692539851,"weights":{"0":0.1859431537147185,"1":-0.6915556214384163,"2":-0.48990453214833884,"3":-0.0919957396025445,"4":-0.29743166822717204,"5":-0.5399598388056415,"6":-0.6180947224756035,"7":-0.4177445573517451,"8":-0.23145177162787778,"9":-0.4254700567479477,"10":-0.566000458907743,"11":0.24032377529437654,"12":-0.1183683698094122,"13":1.0732726277197442,"14":0.1403151091895303,"15":-0.5866381764780946,"16":0.13681220306275757,"17":-0.20141553097880882,"18":-0.4897764246720976,"19":-0.40995558682545247,"20":-0.3386045544342321,"21":-0.3797524215865029,"22":-0.3072915722695964,"23":-0.19431060661205588,"24":0.3330336228883508,"25":-0.6732884608312626,"26":-0.3094751251239618,"27":-0.3429766665414824,"28":-0.20402429769939665,"29":-0.5237182944315737,"30":-0.07737831764749009,"31":-0.018587913204305515,"32":-0.18483142221433888,"33":-0.20239732966014265,"34":-0.538935712307644,"35":0.3402801047245399,"36":-0.12384016456870256,"37":-0.5864357348151253,"38":-0.3655932252463261,"39":0.427488749432277}},"8":{"bias":-0.4191565233916638,"weights":{"0":-0.23025691097490947,"1":0.08716133214682213,"2":-0.20267725791913016,"3":-0.3209118585036177,"4":-0.12229038930512443,"5":-0.2476313629734369,"6":0.012620062440590557,"7":0.0019130332328689032,"8":-0.5677654251233759,"9":-0.18949832330926442,"10":-0.1224787652953963,"11":-0.22887824707117252,"12":-0.3470623261081781,"13":-0.8229768412183113,"14":-0.06616014479998496,"15":0.012823282989914671,"16":0.27043268400775816,"17":-0.10673078579833126,"18":-0.16922114282312092,"19":-0.1489126411360615,"20":-0.17413030478542704,"21":0.024148870066884973,"22":-0.13353637344923586,"23":-0.2403307163851654,"24":-0.5253812051374452,"25":-0.16101656441167245,"26":-0.011496929321351247,"27":-0.1434068515159945,"28":-0.40241476920412395,"29":-0.15469443431342228,"30":-0.28569532312846907,"31":-0.6017077198251533,"32":-0.3822915320358515,"33":-0.26046990355924626,"34":-0.26709975369901057,"35":-0.23607531018344147,"36":0.17005747952662345,"37":-0.11095501810895436,"38":-0.32206567037125394,"39":-0.23368687892053244}},"9":{"bias":-0.4836927377179345,"weights":{"0":-0.9340703948161073,"1":-0.7952711105304409,"2":-0.9778134885642193,"3":-0.718002296714827,"4":-1.2952366337979577,"5":-1.3666483948260286,"6":-0.8148184556739483,"7":-0.7733284254955405,"8":2.756610227284263,"9":-0.41283944194865374,"10":-1.0979001033695064,"11":-2.0066209576863203,"12":-0.732933208526526,"13":-3.587050684484334,"14":-0.683544042943886,"15":-0.7352275209734445,"16":3.199094435780392,"17":-0.8844849646443967,"18":-0.9252550062657339,"19":-0.8351358433483138,"20":-0.6892834227922017,"21":-1.0646999755316142,"22":-0.5518457592155381,"23":-0.5353648690867379,"24":-1.6526333299293636,"25":0.07198296508566869,"26":-0.690740559419095,"27":-1.0043054181559221,"28":0.06946947255979515,"29":-0.40802362405281317,"30":-1.0169591330578056,"31":0.49966817039724776,"32":0.007495663967674399,"33":-1.1792315687913364,"34":-0.9500129128348164,"35":-1.1221219002782248,"36":2.8175690367194157,"37":-0.0737870254310893,"38":1.4656122559174523,"39":-1.0944519315680745}},"10":{"bias":-0.5967059878036346,"weights":{"0":-0.4168633111891115,"1":0.022535577603331504,"2":-0.14887966713721737,"3":-0.19832064305747604,"4":0.004607308307512126,"5":-0.35608155954991394,"6":-0.01765507714295272,"7":-0.3338559239060962,"8":-0.5409841463408246,"9":-0.18668882827622899,"10":0.04821077558430355,"11":-0.39677772634419317,"12":-0.20508806580879604,"13":-0.6665185833819324,"14":-0.0029294323024172653,"15":-0.24919429222700978,"16":0.09822966244293069,"17":-0.12240544293898051,"18":-0.3736428580344041,"19":-0.24443386553783403,"20":-0.18066625214339233,"21":-0.11451200543915821,"22":-0.093102224496605,"23":-0.10728824487265974,"24":-0.3104117073637669,"25":-0.10332000497202853,"26":-0.35287889882598067,"27":-0.3466398597073239,"28":-0.29854705049609986,"29":-0.17291003511964217,"30":-0.06339025945878561,"31":-0.5486728465401935,"32":-0.024918097095551452,"33":-0.278133281892301,"34":-0.16482444597596838,"35":-0.3836376017404207,"36":-0.19408984542458935,"37":-0.2892191610064734,"38":-0.4073841744421485,"39":-0.13456669018534703}},"11":{"bias":-0.19421238289757292,"weights":{"0":-0.40423175478769513,"1":0.3471778542677654,"2":0.15618623116496422,"3":-0.07323644489316242,"4":-0.09950581478838368,"5":-0.25110326549125717,"6":0.4117219456738837,"7":-0.008203227757256444,"8":-1.2310932389001652,"9":-0.1408000190247694,"10":0.4179487811103251,"11":-1.2433380242528747,"12":-0.014465820875273407,"13":-2.189476058590486,"14":-0.30133435807499576,"15":0.468000133965048,"16":0.6438219635733322,"17":0.0718941254030191,"18":0.10737329511088206,"19":-0.06530312108429935,"20":-0.23083849607646184,"21":0.126948615018023,"22":0.09855989267229023,"23":-0.29937806915973847,"24":-0.20883218047648497,"25":-0.7641302228551538,"26":-0.23324224418357745,"27":0.09622289659427363,"28":-0.7264455510249559,"29":-0.30700613777123303,"30":-0.23768644229488117,"31":-0.12188594727178505,"32":-0.7904919008405749,"33":-0.1832136169905131,"34":-0.053680816619282444,"35":-0.2851711140033389,"36":-1.1171886652434788,"37":0.5047545534846329,"38":-0.22753620634692417,"39":-0.6315573760948411}},"12":{"bias":-0.9063325029257305,"weights":{"0":-0.1747918594645277,"1":-0.803502564029037,"2":-0.5206758163060052,"3":-0.16239087415202544,"4":-0.25842189326364234,"5":-0.568865506000695,"6":-0.775673501533541,"7":-0.7392594427019056,"8":0.31494196892116777,"9":-0.39755118840737813,"10":-0.7550469375812034,"11":0.07424975679721285,"12":-0.3488419198290309,"13":0.5865438951962846,"14":-0.15683365854185063,"15":-0.5685507269151372,"16":-0.31339881328540053,"17":-0.5538472514602096,"18":-0.5155636148320767,"19":-0.58526023794993,"20":-0.3031624058621993,"21":-0.47904735642297075,"22":-0.5380083619418248,"23":-0.22111761612537653,"24":0.19446307287532924,"25":-0.37385003793873484,"26":-0.41379247133587416,"27":-0.30035987956674753,"28":0.024688472326232346,"29":-0.26279256729250866,"30":0.09247294699866332,"31":-0.13879919545606134,"32":-0.06951282790868947,"33":-0.6252730816236742,"34":-0.5988853437735584,"35":0.1267842721314663,"36":-0.1643909654313074,"37":-0.6408845576181335,"38":-0.5863534858982885,"39":0.22876324237968632}},"13":{"bias":-0.2470068130966578,"weights":{"0":-0.19944284358710493,"1":0.013233527185341135,"2":-0.18266304100742892,"3":-0.2871760108767496,"4":-0.1293522012073236,"5":-0.10878028521922938,"6":-0.07722373328875151,"7":0.020808362141271665,"8":-0.8006430039566211,"9":0.018454734117529684,"10":0.14033923141118218,"11":-0.37046101075914106,"12":-0.24600708503468138,"13":-1.3663988326815357,"14":-0.20610702651464782,"15":-0.07832383563264277,"16":0.5875359129423137,"17":-0.08865116994001611,"18":0.06751863045442105,"19":-0.1318616265607077,"20":-0.01623151688555214,"21":0.10456021899078835,"22":-0.33086791643427826,"23":0.04487180967757502,"24":-0.4190723709412487,"25":-0.7075210433239411,"26":-0.212382469426865,"27":0.001653404386485929,"28":-0.20830451545617992,"29":-0.09611080003546363,"30":-0.18035245638653283,"31":-0.49527525587747134,"32":-0.22699162433406497,"33":-0.17792385555709173,"34":-0.06962321024433048,"35":-0.25677231917986887,"36":0.009085899573531172,"37":0.3026110263747343,"38":-0.24825788271759192,"39":-0.230142606113914}},"14":{"bias":-1.0521230112650322,"weights":{"0":-0.09376957598204257,"1":-0.6422257310197123,"2":-0.4004241653557748,"3":-0.42510270872633543,"4":-0.2149502134636827,"5":-0.6145059568998604,"6":-0.5500811865063397,"7":-0.5164699694153486,"8":0.07600380797525377,"9":-0.6247373456135089,"10":-0.45610975920493074,"11":0.0515405593363094,"12":-0.4718208883731658,"13":0.6198982985482427,"14":-0.05485586678981258,"15":-0.4083180264442687,"16":-0.0697957890922676,"17":-0.1127829161536934,"18":-0.6245972067761313,"19":-0.4731591699646752,"20":-0.3215130628385233,"21":-0.47170441796803936,"22":-0.37236506811303177,"23":-0.0159917876845558,"24":-0.08593894913710728,"25":-0.3235863256799064,"26":-0.13071371622810588,"27":-0.355362776166101,"28":-0.17384591775921335,"29":-0.24155118193313102,"30":-0.017222776003948413,"31":-0.09479556637463608,"32":-0.2538823230705164,"33":-0.365659563554039,"34":-0.6228287787164557,"35":-0.13384772574427034,"36":-0.2206038104085624,"37":-0.5120361296025627,"38":-0.16442710358238452,"39":0.14961638205488131}},"15":{"bias":-0.7168165035737152,"weights":{"0":0.12845199424259726,"1":-0.5627592784141782,"2":-0.3686876611810119,"3":-0.03726824995094716,"4":-0.27232475094653685,"5":-0.20282925283436348,"6":-0.5236603495650762,"7":-0.22769780703281875,"8":-0.4770539646432598,"9":-0.47183585245991116,"10":-0.4285703135238297,"11":0.41993455643477473,"12":-0.30317761587814285,"13":0.6604383810452568,"14":0.18750766974117683,"15":-0.5001709142597774,"16":-0.5124892423726081,"17":0.016979413115838636,"18":-0.5221643766689599,"19":-0.0998799183640538,"20":-0.3632042427071243,"21":-0.20741208853159898,"22":-0.3407880207995114,"23":-0.2790582730335874,"24":0.38195891260032655,"25":-0.7840587384891946,"26":-0.3368994426219535,"27":-0.4426190276289694,"28":-0.30661731623290595,"29":-0.4211190967104123,"30":0.02590502917815579,"31":0.09003553121836018,"32":-0.275363238201105,"33":-0.24275023565875342,"34":-0.2286947035499573,"35":0.021308426276645618,"36":-0.03254926997876865,"37":-0.5544199935906642,"38":-0.4782874982072822,"39":0.00659953073308781}},"16":{"bias":-1.1604745032757113,"weights":{"0":0.1962854322816753,"1":-0.5370596884119354,"2":-0.3281007130021817,"3":-0.24370312514473597,"4":-0.28131377331259744,"5":-0.33331096900951984,"6":-0.3539732699122968,"7":-0.2575140013842822,"8":-0.4034417422987804,"9":-0.46970142814769145,"10":-0.4979038146329799,"11":0.43765853232810564,"12":-0.33197288546168535,"13":0.39923158844038953,"14":0.014437990893867951,"15":-0.5408784880110454,"16":-1.1928889586914269,"17":-0.34177370320837974,"18":-0.591736529916373,"19":-0.2785832577969454,"20":-0.21340818210225096,"21":-0.3866187408401142,"22":-0.1572471475817527,"23":-0.13734166112046878,"24":0.8429009195961213,"25":-0.6806338175848939,"26":-0.3034393638799013,"27":-0.38712678496979896,"28":-0.13290554778297065,"29":-0.4174926508490812,"30":0.1809056287098188,"31":-0.02174891438299636,"32":-0.2752885754763155,"33":-0.261588665044781,"34":-0.532489353018914,"35":0.28339492399306065,"36":-0.21123577757197437,"37":-0.47804162514877074,"38":-0.52504990641775,"39":0.2942851878501502}},"17":{"bias":-0.24911990175285095,"weights":{"0":-0.17204781688611873,"1":-0.14035680583416035,"2":-0.2603026235655751,"3":-0.010492408740191559,"4":-0.04062695269172078,"5":0.0282061444473538,"6":0.016543115184434163,"7":-0.019043460765217266,"8":-0.6740828112436066,"9":0.005694921250472237,"10":-0.00294246651123127,"11":-0.33091097276834786,"12":-0.34136692065373303,"13":-0.8357967439322036,"14":-0.4514529271076317,"15":0.12408238296492566,"16":0.3887336907347217,"17":-0.19169096264950336,"18":-0.27694107098081483,"19":-0.2961924990241351,"20":-0.1843686051810758,"21":-0.2680107568243577,"22":-0.2220438087798692,"23":-0.1909135287762328,"24":-0.5485752197545029,"25":-0.21984254530350558,"26":-0.12846604814208956,"27":-0.38711393574631436,"28":-0.38269722935397443,"29":-0.20015833531119856,"30":-0.2533189783209202,"31":-0.7088333753200433,"32":-0.2793354549770668,"33":-0.11198551719453965,"34":-0.056046948752055924,"35":-0.14067481906288595,"36":-0.09202865175710445,"37":-0.07370321168638934,"38":-0.4527797335421336,"39":-0.12449533947524076}},"18":{"bias":-0.8101250366256741,"weights":{"0":-0.25872611645193677,"1":-1.6853208553917056,"2":-0.8243459301207154,"3":-0.6016095919352072,"4":-0.8197863450761403,"5":-1.031408644155441,"6":-1.182275437595001,"7":-1.2159257782462214,"8":2.6609439587848973,"9":-0.849212515586738,"10":-1.3718504700933747,"11":0.6372126654561114,"12":-0.70085569694878,"13":0.627796695165853,"14":0.08942765904691853,"15":-1.5606629513645882,"16":3.5738090930488893,"17":-1.0465794458432593,"18":-1.1367724267546317,"19":-0.7376441914570504,"20":-0.39427443579748395,"21":-1.4180143647978354,"22":-0.5776229252127066,"23":-0.1838413425616665,"24":0.08978838874281644,"25":-0.38845271078141724,"26":-0.35580620744236346,"27":-0.99542866928251,"28":0.6094184479818561,"29":-0.381528844198469,"30":0.2010052478772453,"31":0.5502791814612004,"32":0.6360939544453338,"33":-1.1031671609305644,"34":-0.9252998657897655,"35":-0.09031586929271537,"36":0.453934518482096,"37":-0.913344820800327,"38":0.29024469756025495,"39":0.06402696558072177}},"19":{"bias":0.03460251521524604,"weights":{"0":-0.27143555805412295,"1":0.38800891120157033,"2":0.09267927907723539,"3":-0.10397687897169769,"4":-0.2659410474301487,"5":-0.30612229961196585,"6":-0.0491411512639404,"7":0.032325256709667634,"8":-1.0901465686282261,"9":0.052365856842418325,"10":0.10279028873577647,"11":-0.6107497559767605,"12":-0.14855346729858993,"13":-1.7321833755294538,"14":-0.4386948223034833,"15":0.24450794282118987,"16":0.7425006993885289,"17":0.03714533093052132,"18":0.07583689136116287,"19":-0.1859441146882517,"20":-0.34433530735155826,"21":0.09572153024094257,"22":-0.25046883017678534,"23":-0.06836992596087216,"24":-0.5642351696495715,"25":-0.47202043869640614,"26":-0.07850557551125775,"27":-0.14655487343858228,"28":-0.47193741907234943,"29":-0.4386646034906724,"30":-0.17294993364034397,"31":-0.20060518727478488,"32":-0.3396970882565519,"33":-0.10950412244422983,"34":-0.1765087131802197,"35":-0.2005175504606973,"36":-0.3820725104771492,"37":0.2798807713423092,"38":-0.4163914590118878,"39":-0.4233152260593306}},"20":{"bias":-0.34301602360436556,"weights":{"0":-0.1680620010895825,"1":0.26521786653663454,"2":-0.26365957257045136,"3":-0.1808382677053635,"4":-0.09234449490160478,"5":-0.030794138263581426,"6":0.14401571897042778,"7":-0.2427677417620353,"8":-0.7473226666292275,"9":-0.2092632341586663,"10":0.13080472962534148,"11":-0.37864049980556236,"12":0.050122960646550536,"13":-1.3365112827644785,"14":-0.19195767726725782,"15":-0.0959990302739406,"16":0.6933638593307866,"17":-0.0017288388788229043,"18":-0.10230820892983179,"19":-0.2027381748323538,"20":-0.12631414418283313,"21":-0.08546274685080003,"22":-0.1576579517732654,"23":-0.2322595404586394,"24":-0.4637456300877104,"25":-0.6968112037529861,"26":-0.023643091171588585,"27":-0.21591386383663472,"28":-0.11224008447642672,"29":-0.1467110439851464,"30":-0.3336091526119074,"31":-0.28165422155423964,"32":-0.06050979760213397,"33":-0.09423209885811992,"34":-0.18577868255521202,"35":-0.10990753151024742,"36":-0.14597490516579267,"37":0.2968701665996565,"38":-0.5007875521870224,"39":-0.35746976576303574}},"21":{"bias":-0.6579521620038217,"weights":{"0":-0.2691876964018395,"1":-0.2160961295353109,"2":-0.44501166109751333,"3":-0.2479682629398771,"4":-0.14895055501247148,"5":-0.38628998789483077,"6":-0.28394436830109504,"7":-0.11898402102430572,"8":-0.18618765851377397,"9":-0.1763234904925465,"10":-0.45748064458771304,"11":-0.18037646958059989,"12":-0.32153492521496985,"13":-0.42890883269478064,"14":-0.09743880227292268,"15":-0.2253719839070293,"16":-0.0933947367402487,"17":-0.33587348336877254,"18":-0.3418509307097244,"19":-0.2748168273638801,"20":-0.3336684003051776,"21":-0.31526581863740716,"22":-0.23384274966399848,"23":-0.3701252534815295,"24":-0.15315254194935615,"25":-0.07512931722543091,"26":-0.042263555723327156,"27":-0.07061789306832326,"28":-0.37810975067595215,"29":-0.31469000988475354,"30":-0.11999779083753147,"31":-0.4642593545144847,"32":-0.32105053390205485,"33":-0.4458611834513168,"34":-0.18611829937539623,"35":-0.26906200524608187,"36":-0.2239861817689847,"37":-0.3358647200974431,"38":-0.08458058008695869,"39":-0.20524713319720675}},"22":{"bias":-0.7138854417343148,"weights":{"0":-0.403841409657109,"1":-0.1376770976107417,"2":-0.3830180972628891,"3":-0.09007848766689867,"4":-0.4032612953070167,"5":-0.18033079886819997,"6":-0.265860607711641,"7":-0.20127423941789266,"8":-0.5405982527080986,"9":-0.04176364398102987,"10":-0.25246843235835026,"11":-0.36097289485605505,"12":-0.1408955413761787,"13":-0.44888100477461035,"14":-0.08638630083966528,"15":-0.2637741612262029,"16":0.1095562021442245,"17":-0.1900654216454949,"18":-0.002212938165888187,"19":-0.1028911107657532,"20":-0.2450053167703693,"21":-0.11820321885278004,"22":-0.14400270585652544,"23":-0.11063958117697609,"24":-0.2739865874531539,"25":-0.15759782321696503,"26":-0.1934859676316824,"27":-0.29917914647452143,"28":-0.18363320070368036,"29":-0.4279929894764304,"30":-0.044045979898971,"31":-0.39947069463247337,"32":-0.20138579454110553,"33":-0.3768122588432603,"34":-0.031888914374330016,"35":-0.07737984059758532,"36":-0.11978359524187632,"37":-0.22874156438751156,"38":-0.5091746486854473,"39":-0.18509989203430605}},"23":{"bias":-0.4640813967769822,"weights":{"0":-0.33701088156096426,"1":0.10919417301689952,"2":-0.28778827139990487,"3":-0.012098813165921624,"4":-0.1681911135253482,"5":-0.15128450060465887,"6":0.0068815123732055205,"7":0.0015071998184776798,"8":-0.48657162516194685,"9":-0.12124871028975598,"10":0.07880513931008966,"11":-0.21365217170211245,"12":-0.2502160627580418,"13":-0.859592399152851,"14":-0.022095336716639304,"15":0.12494149040309063,"16":0.250710973040785,"17":-0.16850679335247687,"18":-0.22743591732889792,"19":-0.23468039031506224,"20":-0.20485283426436043,"21":-0.054788183584517786,"22":-0.042851376834236225,"23":-0.27472909455531364,"24":-0.5018875103127517,"25":-0.5029920996478744,"26":-0.26585272600708343,"27":-0.08957537742919398,"28":-0.16304253470246374,"29":-0.19122200971957187,"30":-0.34716620098618195,"31":-0.5886066336768908,"32":-0.08150646271660344,"33":-0.09507774470031306,"34":-0.2392450762379869,"35":-0.22629036056289129,"36":0.057549051811579245,"37":0.19490384856118886,"38":-0.4538460198795075,"39":-0.14979098566710022}},"24":{"bias":-2.5084285561841915,"weights":{"0":-0.8375226506243494,"1":1.2839899933939471,"2":0.18686323559066262,"3":-0.42703658760592983,"4":-0.22485930480290836,"5":0.7513739661624642,"6":0.7292359104390514,"7":1.260773971834668,"8":-2.2635743587030634,"9":-0.0013959408091369257,"10":1.028653798735901,"11":-3.0668911445253726,"12":-0.06878340024954069,"13":-5.859977474225985,"14":-1.8549508357294366,"15":1.729524109256628,"16":-3.631108034101164,"17":0.4508511070475661,"18":-0.10715194545146951,"19":-0.29988144045923343,"20":-0.34630875416659906,"21":1.0702995301050902,"22":1.3232733943149804,"23":-0.9606964192816162,"24":1.269512985627243,"25":1.3473994631916775,"26":-0.829931274472247,"27":0.2744486034715954,"28":-1.943227699868038,"29":0.6114056052305269,"30":-1.6635832837693731,"31":1.6521601002369521,"32":-0.5584689007684535,"33":0.1601193808459179,"34":0.4126308798883213,"35":-1.525456647769117,"36":5.582835570777952,"37":0.34193018160899424,"38":0.5829403558667972,"39":-2.165197546063281}},"25":{"bias":-0.8828872917565767,"weights":{"0":-0.2374399802605719,"1":-0.6306040418205137,"2":-0.5644368809785182,"3":-0.4878887932671312,"4":-0.5001039784317489,"5":-0.7242135729235055,"6":-0.6071455383529829,"7":-0.6958322445571135,"8":0.3979398882436385,"9":-0.4094155967548397,"10":-0.7223123712701951,"11":-0.04822225228907863,"12":-0.38218662094615447,"13":0.23813659093289255,"14":-0.0956608554659981,"15":-0.6049282629131951,"16":-0.07623054217124803,"17":-0.2697421756523271,"18":-0.5558084244698893,"19":-0.4812184848855934,"20":-0.25781959336504545,"21":-0.6994314198336591,"22":-0.3831420237375646,"23":-0.06022505267978574,"24":-0.24947992508237185,"25":-0.502773657518367,"26":-0.4398603319762547,"27":-0.3759414050003252,"28":0.11166430296402212,"29":-0.42276897852706663,"30":-0.18567269843919956,"31":-0.006986334716182293,"32":0.056202730443815935,"33":-0.2775727846234334,"34":-0.4618571389659646,"35":-0.055157865045227385,"36":-0.03613785084371123,"37":-0.5657040793904047,"38":-0.0709364941227435,"39":0.045239834099954634}},"26":{"bias":-1.2606436513879151,"weights":{"0":-0.39562436199898415,"1":-1.1409253643060242,"2":-0.9896845952853551,"3":-0.8117796421251772,"4":-1.0655818433219721,"5":-0.9793954346896674,"6":-1.0703233543736803,"7":-1.0260872236424718,"8":1.3442231747607363,"9":-0.9215944046786104,"10":-0.9789475456263341,"11":-0.056612797562624655,"12":-0.9329509244248336,"13":-0.1921844982336665,"14":-0.5063045525075797,"15":-1.0662121008158743,"16":0.24128021850316053,"17":-0.6782651960562046,"18":-1.3162089749260306,"19":-0.7059682539002533,"20":-0.5350561911933339,"21":-0.8554887890613897,"22":-0.08382250026387388,"23":-0.6525506771766306,"24":-0.24259108772102578,"25":0.3037883512688709,"26":-0.7664051134432558,"27":-0.9614700920334959,"28":0.2965052270273821,"29":0.03795366775759506,"30":-0.5477762659561957,"31":-0.3863658513418323,"32":0.202501277271364,"33":-1.0842788592580066,"34":-0.6875915703988812,"35":-0.14047618857348207,"36":0.4374811591668687,"37":-1.0761572625013294,"38":0.5426335875921077,"39":-0.3001703073987}},"27":{"bias":-0.5641484190153103,"weights":{"0":-0.07590420645713185,"1":-0.14348755422033924,"2":-0.03998748142734764,"3":-0.1828224209613654,"4":-0.22046021459125237,"5":-0.013951189020735244,"6":-0.23258687458605615,"7":-0.2046589042661188,"8":-0.5726209392615214,"9":-0.07920166409030872,"10":0.029263143730271137,"11":-0.3716586425207413,"12":-0.01897054048747067,"13":-0.6560168768059994,"14":-0.27833531803638834,"15":-0.259515175559866,"16":0.197377042006118,"17":-0.1698478430477572,"18":-0.03557524579784309,"19":-0.30948819689689444,"20":-0.3433587694429847,"21":-0.26486064556874894,"22":-0.1455239959440205,"23":-0.3298263552464447,"24":-0.675779951637423,"25":-0.16633833160967348,"26":-0.041453333297963524,"27":-0.13770098957558685,"28":-0.10390416128220559,"29":-0.43957020032990024,"30":-0.17350229634796027,"31":-0.31959556594658906,"32":-0.3113905464036819,"33":-0.03708095386089358,"34":-0.32091325215397914,"35":-0.40494115423032334,"36":-0.01850137495397833,"37":-0.059375446735434864,"38":-0.3095434034914751,"39":-0.17848923693141341}},"28":{"bias":-0.06198037483230167,"weights":{"0":-0.26490862349768063,"1":0.2948701047491122,"2":-0.24942822943735593,"3":-0.2571436801294938,"4":-0.201207297177145,"5":-0.014486214537629686,"6":0.11880330107205342,"7":0.02926701056455044,"8":-0.955520049537411,"9":0.052369987302255165,"10":0.1983241098687769,"11":-0.6113621810856605,"12":-0.18913416648706657,"13":-1.4101134863362315,"14":-0.2699493662096622,"15":0.07018685332075615,"16":0.6528693228131902,"17":-0.22962887653111275,"18":-0.03563631164174116,"19":-0.23683376020760338,"20":-0.09402171524790619,"21":-0.12262671053661933,"22":-0.31725008116757863,"23":0.041087069705984226,"24":-0.3835908635018179,"25":-0.5269439507111403,"26":-0.09788496502308011,"27":-0.11324649647639788,"28":-0.28732058313670944,"29":-0.46719429937885976,"30":-0.10007871424543385,"31":-0.4923948125669652,"32":-0.530557419761761,"33":-0.2731425099829818,"34":0.021574602245598772,"35":-0.4042014892525223,"36":-0.24933788909446544,"37":0.1952343565084519,"38":-0.2315506718889865,"39":-0.15260179789974423}},"29":{"bias":-0.5452160494065786,"weights":{"0":-0.19429231326279986,"1":-0.4314245084656784,"2":-0.3681305628192579,"3":-0.22337718428424871,"4":-0.18195903567663163,"5":-0.20695402700874835,"6":-0.20231106248852196,"7":-0.20945377419561736,"8":-0.22851275771118404,"9":-0.30795183198324827,"10":-0.4404738430057117,"11":-0.36971335524544086,"12":-0.11365651253040623,"13":-0.3153644726818976,"14":-0.28479523488666914,"15":-0.33597139565245365,"16":-0.08005160134661893,"17":-0.34725303643697447,"18":-0.1264401898125878,"19":-0.2776766956115772,"20":-0.1632894331264574,"21":-0.07989809314460213,"22":-0.42970791715097273,"23":-0.3761967770110365,"24":-0.32493991777347325,"25":-0.3969478922463081,"26":-0.24652235312939033,"27":-0.467969994231076,"28":-0.18419653827124732,"29":-0.11719037630277511,"30":-0.24962964162404128,"31":-0.13357349103363372,"32":-0.04424916177695932,"33":-0.43765922391548523,"34":-0.3632638008381759,"35":-0.028890021336527696,"36":-0.17845195726184215,"37":-0.34446505673888966,"38":-0.44895782949280144,"39":-0.02825606403349145}},"30":{"bias":-0.6973963202323488,"weights":{"0":0.08999390342179571,"1":-0.5451655340231798,"2":-0.3663619630870347,"3":-0.264062769757962,"4":-0.14863115109084807,"5":-0.4856353956850282,"6":-0.2085356911558947,"7":-0.44035894138685416,"8":-0.019830534757856316,"9":-0.3058277852086193,"10":-0.42948851255094406,"11":0.34723852303009434,"12":-0.11710566792330591,"13":1.2700309261709704,"14":-0.005778016438613173,"15":-0.6272467769955697,"16":-0.047394831728527896,"17":-0.2665704573038171,"18":-0.20661847521306728,"19":-0.37810680563400223,"20":-0.23826774974216114,"21":-0.5756458623128295,"22":-0.7059760910123772,"23":-0.17332234253416556,"24":0.270914495474896,"25":-0.8713459020524363,"26":-0.2688120764587715,"27":-0.11313841441369372,"28":-0.2862415650709412,"29":-0.6226932148329475,"30":0.2905890535024706,"31":0.01956569776858759,"32":-0.15274109508900124,"33":-0.266759130688371,"34":-0.28433954030129455,"35":0.47208715576233534,"36":-0.36044378588536474,"37":-0.5122865157718267,"38":-0.5861374468053567,"39":0.4795070222232859}},"31":{"bias":-0.6353310788626573,"weights":{"0":-0.15899149456120273,"1":-0.49048646065216805,"2":-0.5120138777158236,"3":-0.11885901197429187,"4":-0.4981231275637342,"5":-0.36255312789163713,"6":-0.6155562915501943,"7":-0.35409566399590253,"8":-0.2163136265034525,"9":-0.3731064116408813,"10":-0.36364560807522994,"11":0.014641551409534357,"12":-0.4712367845278145,"13":-0.15146559626607095,"14":-0.2725482836741632,"15":-0.2536162293066859,"16":0.025636140786510355,"17":-0.215781282449967,"18":-0.6298358182736707,"19":-0.33429968125084614,"20":-0.420496339453164,"21":-0.26767992663231077,"22":-0.21393749534883577,"23":-0.37971274574117936,"24":0.017293958309478587,"25":-0.12885051211908832,"26":-0.09445269471462894,"27":-0.535132291430759,"28":-0.13615725457783576,"29":-0.39802744328367073,"30":-0.3584746633822429,"31":-0.21909851696577076,"32":-0.1387788510309151,"33":-0.37075461557481604,"34":-0.31882162678570375,"35":-0.08729504078283111,"36":-0.015457267587123364,"37":-0.45065171111870683,"38":-0.2517697760979825,"39":-0.12452270699572712}},"32":{"bias":-0.01756975954405659,"weights":{"0":-0.09347782312252702,"1":0.3070542546899894,"2":0.008409813886343324,"3":0.019025229016966926,"4":-0.034509341373943125,"5":-0.2317102821711852,"6":0.25640204599289873,"7":0.15993893046204308,"8":-1.0584042330686751,"9":0.061939711056153396,"10":0.030339112925077325,"11":-0.8758496451858296,"12":0.11437308386343908,"13":-1.4656014474282422,"14":-0.47138197310458974,"15":0.1637096307191462,"16":0.6597037840266635,"17":-0.2759583851199351,"18":-0.16271280755677933,"19":-0.23748959285804355,"20":-0.24593458547456992,"21":-0.09507920014713192,"22":-0.26149232991259336,"23":-0.377108806848241,"24":-0.5178092293006225,"25":-0.38575385051225297,"26":-0.38035800926086566,"27":-0.20342571724591718,"28":-0.41219982525650717,"29":-0.1433211941912064,"30":-0.15720466819455559,"31":-0.47985166329465156,"32":-0.351970392240255,"33":-0.040915382261591395,"34":0.05203168743820262,"35":-0.4314170921461874,"36":-0.38660624950183625,"37":0.22864835996797347,"38":-0.5167502846780883,"39":-0.39556993100946375}},"33":{"bias":-1.1349139937887718,"weights":{"0":0.34603891734638886,"1":-1.0370687051221574,"2":-0.6145868671599598,"3":-0.22801085822757178,"4":-0.3247616643380744,"5":-0.6385019879100314,"6":-0.8633317274220552,"7":-0.645013330993036,"8":1.0332921819577643,"9":-0.6971346814120829,"10":-0.6812579408709892,"11":1.2520032067226634,"12":-0.3534252868835893,"13":-1.2219995146221154,"14":0.21493913846562854,"15":-0.9050614227846274,"16":-3.9682513691724948,"17":-0.3385034630673273,"18":-0.9913298062575849,"19":-0.36020101814529565,"20":-0.21582360076182752,"21":-0.8370092814909914,"22":-0.6969403990263433,"23":0.0830961196284879,"24":1.314671620187768,"25":0.16144047874894005,"26":-0.10083293929985716,"27":-0.503847629775098,"28":0.7155121609186968,"29":-0.1552684570304609,"30":0.12257745570493067,"31":0.403469624169227,"32":0.19139471358845192,"33":-0.3578488752840575,"34":-0.716738088137313,"35":0.4051468412231487,"36":-0.7233081452966382,"37":-0.9428705279444562,"38":0.05124803033369607,"39":0.5526663294068096}},"34":{"bias":-1.1466811538334771,"weights":{"0":-0.02249972567939393,"1":-0.6382369811354304,"2":-0.48288816840846255,"3":-0.3999082937285317,"4":-0.6890119511754793,"5":-0.8755399814527624,"6":-0.6403784718548737,"7":-0.8980148526312024,"8":0.6513329396785013,"9":-0.6710465678395467,"10":-0.8124264620225704,"11":0.28102375444344546,"12":-0.3499142058121731,"13":0.5309276376868695,"14":-0.2922830139659704,"15":-0.9356333514871817,"16":-0.051992892202514907,"17":-0.3910168623542504,"18":-0.8973012144574132,"19":-0.3435055183686774,"20":-0.5785854058648228,"21":-0.8007223800749617,"22":-0.5354580459894852,"23":-0.24222334096536113,"24":0.08090430385725451,"25":-0.3406036416452223,"26":-0.4554181807962656,"27":-0.45570023267012477,"28":0.06481150397154056,"29":-0.4365325663751781,"30":0.01874187866804248,"31":0.14243656308837196,"32":0.11083460801260427,"33":-0.6611079000403394,"34":-0.550472918082655,"35":0.029384206359692817,"36":0.008129009203912354,"37":-0.8395036724623723,"38":-0.1790697642671629,"39":0.0040187330466986155}},"35":{"bias":0.0011254699531168255,"weights":{"0":-0.1398136783353528,"1":0.3206507294699858,"2":-0.10808815574288531,"3":0.05999521777021404,"4":-0.15891876290045692,"5":-0.011003956176077072,"6":0.20161048130108253,"7":0.10300962531906942,"8":-1.0042634533762786,"9":-0.022864780573915878,"10":-0.10395762924655336,"11":-0.5545911676223149,"12":-0.17063219471798713,"13":-1.4416485445323255,"14":-0.20991429510838605,"15":-0.05624589457426855,"16":0.5797035271749058,"17":-0.26784299920290433,"18":0.15025055869860815,"19":-0.3045174311128561,"20":-0.028657171389645627,"21":0.053866900179680086,"22":-0.30363239191199226,"23":-0.25401581039595045,"24":-0.5735772183521485,"25":-0.503514226421471,"26":-0.09566602902601572,"27":-0.266885787800731,"28":-0.5105457656892483,"29":-0.27801710782596006,"30":-0.08747293437265023,"31":-0.4183822952249364,"32":-0.29053749320326105,"33":-0.16558503165198366,"34":-0.2776366773021375,"35":-0.3626600558764289,"36":-0.2471059185961165,"37":0.36280986805069887,"38":-0.42251924788569434,"39":-0.5061125914837109}},"36":{"bias":-0.7719428483243482,"weights":{"0":-0.29864344460316256,"1":-0.698351101205457,"2":-0.5138387154549336,"3":-0.4743446188388204,"4":-0.30213181009793316,"5":-0.5520821244112321,"6":-0.5411087138650814,"7":-0.7168281159357707,"8":0.2073283181333735,"9":-0.43889453363202763,"10":-0.5362761066157162,"11":0.19202383494081823,"12":-0.2278177945147965,"13":0.24702030949786039,"14":-0.08729221373616344,"15":-0.5663865706511679,"16":-0.16675494847644426,"17":-0.3756947243874565,"18":-0.41185642846611614,"19":-0.27635591994302294,"20":-0.45653106902525087,"21":-0.6070996176605004,"22":-0.37694739515957804,"23":-0.3929284464974,"24":-0.15343866459482935,"25":-0.21467492352077416,"26":-0.2836680480538329,"27":-0.5022644436166054,"28":0.06811570201241497,"29":-0.40814356977136096,"30":-0.08959609163911846,"31":0.03568562682377577,"32":-0.24458105754977544,"33":-0.23639151570766723,"34":-0.5769452914555484,"35":0.07551847645422836,"36":-0.11889119923779516,"37":-0.6091986963280939,"38":-0.45795425195289674,"39":0.13844177199828261}},"37":{"bias":0.03546899093202307,"weights":{"0":-0.20248171184028646,"1":0.45019818900934394,"2":-0.18989703953392817,"3":-0.12819391429373098,"4":-0.19833644523399344,"5":-0.26645996503326425,"6":0.2773542955770445,"7":0.17478031948320774,"8":-1.3323340873471783,"9":0.1379017307059176,"10":0.1967754876912897,"11":-0.6364393157635083,"12":-0.004445323847875723,"13":-1.9502481612625753,"14":-0.4198446850985555,"15":0.07713478329330137,"16":1.1411939038670698,"17":0.18610241899935268,"18":-0.10439628164299164,"19":0.04373289617952046,"20":-0.19779643294449245,"21":-0.15424258549705336,"22":-0.2749598998676638,"23":-0.22404592325526101,"24":-0.5489684939374889,"25":-0.5915868569090323,"26":-0.22190400460516566,"27":-0.1460647388014871,"28":-0.26815312710270395,"29":-0.10500578417353848,"30":-0.17526302455812437,"31":-0.3530418973428099,"32":-0.5740239309228854,"33":-0.137577329071808,"34":0.06448746187001071,"35":-0.07145294232699614,"36":-0.2927042684726803,"37":0.3730829574679011,"38":-0.4378581633985792,"39":-0.2876187330862874}},"38":{"bias":-0.989698787674566,"weights":{"0":0.02282059927607707,"1":-0.5871054038044262,"2":-0.38208186857308024,"3":-0.3467948089467411,"4":-0.23598258858479823,"5":-0.41301731181104595,"6":-0.457189151475262,"7":-0.5015790712902243,"8":0.001774746639687954,"9":-0.27956207660420823,"10":-0.5164695629418989,"11":-0.13923741731446973,"12":-0.43232604158301186,"13":0.42070044823628483,"14":-0.2323814344501769,"15":-0.43142439125440146,"16":-0.4490732530855171,"17":-0.23150594884608003,"18":-0.330791983121957,"19":-0.4606006755282813,"20":-0.12204552008233881,"21":-0.3261018340958154,"22":-0.20220440273887005,"23":-0.13086867914546016,"24":-0.0938917781971708,"25":-0.5929880443501842,"26":-0.345388497524981,"27":-0.20529696613312112,"28":-0.07500934922030186,"29":-0.2050464054813081,"30":0.09039079558396082,"31":-0.183184554406329,"32":0.07446118818915676,"33":-0.34855024348115005,"34":-0.3967912315379514,"35":0.08314997812222207,"36":0.013743993648447604,"37":-0.2789770166176534,"38":-0.3046774935156802,"39":0.0035670486353060263}},"39":{"bias":-0.572436007723815,"weights":{"0":-0.28410529553267083,"1":-0.13672131798285736,"2":-0.3297312096546198,"3":-0.005897474824089458,"4":-0.32021733077491527,"5":0.02715192981250543,"6":-0.2139273661513356,"7":-0.02019118207125256,"8":-0.6725671708268912,"9":-0.24128539804062638,"10":0.06786937649610406,"11":-0.32173361650797455,"12":-0.3022012103121386,"13":-0.6454626540169875,"14":-0.18633061062614592,"15":0.13850836996393603,"16":0.2958429942369419,"17":-0.1675742835740031,"18":-0.22107213137455267,"19":-0.2464492405573869,"20":0.00016643590471719617,"21":-0.09053255837024059,"22":-0.31537635654238,"23":-0.06906747322278747,"24":-0.6351307994059431,"25":-0.44051994022643504,"26":-0.3464497690076989,"27":-0.24556564272331224,"28":-0.13290584819174367,"29":-0.4206125395012623,"30":-0.05379025389412251,"31":-0.39655395358167067,"32":-0.07851614890385746,"33":-0.10032581514891391,"34":-0.03230076920826574,"35":-0.2107798882511992,"36":-0.17806749132957467,"37":-0.12422365463544062,"38":-0.187626093463766,"39":-0.3283773104368063}}},{"price":{"bias":-0.024079761255202274,"weights":{"0":2.3475208795927527,"1":3.7632299702864143,"2":-2.881585489059106,"3":-3.4190501119868517,"4":1.3954376930936625,"5":2.676284384412488,"6":0.9560233016652016,"7":-0.6992239750112677,"8":0.991441865633165,"9":-2.010191573681495,"10":0.7157855100663478,"11":1.8569372984664763,"12":-0.48847317411021673,"13":1.2485491157074533,"14":-0.29479069524268997,"15":-0.5411599254046363,"16":-0.6380856822444481,"17":0.974369489714537,"18":-1.2860811410027615,"19":1.4444742316694188,"20":1.2060508234784908,"21":0.44734103145777926,"22":0.5293562651270944,"23":0.9835108638125046,"24":-6.278419490717475,"25":-0.30769629802195814,"26":-0.7281291669406439,"27":0.8085319358547883,"28":1.277802186564799,"29":0.2757284935848149,"30":-0.8522470986533482,"31":0.1586837149075714,"32":1.389839885210398,"33":-2.1239757094922838,"34":-0.6658913587452878,"35":1.3267568905682885,"36":-0.266335802557153,"37":1.6326138439568763,"38":-0.17036308804007438,"39":0.7786432674247935}}}],"outputLookup":true,"inputLookup":true}